{"learner":{"attributes":{"scikit_learn":"{\"_estimator_type\": \"classifier\"}"},"feature_names":["3p","3p%","3p_max","3pa","3par","ast","blk","blk%_opp","blk_max","drb","drb%_opp","drb_max_opp","drtg","efg%","fg","fg%","fg%_opp","fga","fga_max","ft","ft%","fta","ftr","orb","orb%","orb_max","ortg","pf","pts","stl","stl%","tov","trb","ts%","usg%","usg%_max","usg%_opp","home"],"feature_types":["float","float","float","float","float","float","float","float","float","float","float","float","float","float","float","float","float","float","float","float","float","float","float","float","float","float","float","float","float","float","float","float","float","float","float","float","float","int"],"gradient_booster":{"model":{"gbtree_model_param":{"num_parallel_tree":"1","num_trees":"100"},"iteration_indptr":[0,1,2,3,4,5,6,7,8,9,10,11,12,13,14,15,16,17,18,19,20,21,22,23,24,25,26,27,28,29,30,31,32,33,34,35,36,37,38,39,40,41,42,43,44,45,46,47,48,49,50,51,52,53,54,55,56,57,58,59,60,61,62,63,64,65,66,67,68,69,70,71,72,73,74,75,76,77,78,79,80,81,82,83,84,85,86,87,88,89,90,91,92,93,94,95,96,97,98,99,100],"tree_info":[0,0,0,0,0,0,0,0,0,0,0,0,0,0,0,0,0,0,0,0,0,0,0,0,0,0,0,0,0,0,0,0,0,0,0,0,0,0,0,0,0,0,0,0,0,0,0,0,0,0,0,0,0,0,0,0,0,0,0,0,0,0,0,0,0,0,0,0,0,0,0,0,0,0,0,0,0,0,0,0,0,0,0,0,0,0,0,0,0,0,0,0,0,0,0,0,0,0,0,0],"trees":[{"base_weights":[-1.0816902E-7,-8.3893704E-1,9.414574E-1,7.777645E-1,-1.7556378E0,1.7934667E0,-8.322094E-1,-7.676843E-1,1.8009634E0,-8.1020504E-1,-1.9371616E0,1.9782586E0,1.0396383E0,-1.7984937E0,7.6694834E-1,9.102925E-1,-1.7615504E0,1.0616269E0,1.9588388E0,-1.9312278E0,1.861534E0,-1.4716614E0,-5.9594095E-1,5.991997E-1,1.671823E0,-1.4557226E0,1.9732016E0,-1.9609889E0,-1.0329372E0,1.8574833E0,-6.859333E-1,-6.24535E-1,1.8943268E0,-7.974855E-1,-1.9393425E0,5.9217745E-1,-1.7624747E0,1.9906331E0,1.4686507E0,-5.967203E-1,-4.706787E-1,2.3991388E-1,5.918889E-1,-5.949779E-1,5.675385E-1,-5.143121E-1,5.917786E-1,-5.902742E-1,-8.343158E-2,6.6658694E-1,5.9725755E-1,-1.4717968E0,-5.975167E-1,1.7673441E0,-5.905441E-1,9.2297965E-1,5.915779E-1,-1.9041009E0,5.891108E-1,3.2854214E-1,-4.8939162E-1,-1.5377998E-5,5.750438E-1,-5.778074E-1,5.265024E-1,-5.9345526E-1,-4.1252884E-1,-4.617514E-2,-5.739425E-1,5.9787995E-1,1.4998463E-1,-4.7370848E-1,5.787314E-1,4.3997747E-1,-4.9567762E-1,4.4997695E-1,-4.1540593E-1,5.4890805E-1,-5.3210396E-1,4.2854947E-1,-3.000154E-1,-5.744975E-1,4.4997695E-1,5.6959105E-1,5.4525882E-2,5.592934E-1,-4.9567762E-1,-5.7564E-1,-1.5001538E-1,5.323645E-1,-3.204179E-1],"categories":[],"categories_nodes":[],"categories_segments":[],"categories_sizes":[],"default_left":[0,0,0,0,0,0,0,0,0,0,0,0,0,0,0,0,0,0,0,0,0,0,0,0,0,0,0,0,0,0,0,0,0,0,0,0,0,0,0,0,0,0,0,0,0,0,0,0,0,0,0,0,0,0,0,0,0,0,0,0,0,0,0,0,0,0,0,0,0,0,0,0,0,0,0,0,0,0,0,0,0,0,0,0,0,0,0,0,0,0,0],"id":0,"left_children":[1,3,5,7,9,11,13,15,17,19,21,23,25,27,29,31,33,35,37,39,41,43,-1,-1,45,47,49,51,53,55,57,59,61,63,65,-1,67,69,71,-1,73,75,-1,-1,-1,-1,-1,-1,77,79,-1,81,-1,83,-1,85,-1,87,89,-1,-1,-1,-1,-1,-1,-1,-1,-1,-1,-1,-1,-1,-1,-1,-1,-1,-1,-1,-1,-1,-1,-1,-1,-1,-1,-1,-1,-1,-1,-1,-1],"loss_changes":[3.8576953E3,3.8290823E3,3.4794746E3,1.4802948E3,2.8134375E2,2.1455664E2,1.156447E3,6.240667E2,6.363562E1,8.040303E2,2.8803223E1,3.9541016E0,7.2096466E2,5.5975586E1,4.4847614E2,2.1187314E2,3.8690308E1,2.643417E2,4.28833E0,1.5008911E1,1.3891937E1,2.3820251E2,0E0,0E0,8.409578E1,5.919017E1,3.8580322E0,2.8342285E0,2.228859E2,1.5451904E1,1.9022595E2,9.7441826E1,3.6314697E0,1.135627E2,1.6082764E0,0E0,5.8250275E0,4.840088E-1,4.7952225E1,0E0,2.1880024E1,1.4870744E1,0E0,0E0,0E0,0E0,0E0,0E0,8.0853035E1,7.1428084E0,0E0,3.77742E1,0E0,4.130707E0,0E0,5.035131E1,0E0,3.3039856E-1,1.20254776E2,0E0,0E0,0E0,0E0,0E0,0E0,0E0,0E0,0E0,0E0,0E0,0E0,0E0,0E0,0E0,0E0,0E0,0E0,0E0,0E0,0E0,0E0,0E0,0E0,0E0,0E0,0E0,0E0,0E0,0E0,0E0,0E0],"parents":[2147483647,0,0,1,1,2,2,3,3,4,4,5,5,6,6,7,7,8,8,9,9,10,10,11,11,12,12,13,13,14,14,15,15,16,16,17,17,18,18,19,19,20,20,21,21,24,24,25,25,26,26,27,27,28,28,29,29,30,30,31,31,32,32,33,33,34,34,36,36,37,37,38,38,40,40,41,41,48,48,49,49,51,51,53,53,55,55,57,57,58,58],"right_children":[2,4,6,8,10,12,14,16,18,20,22,24,26,28,30,32,34,36,38,40,42,44,-1,-1,46,48,50,52,54,56,58,60,62,64,66,-1,68,70,72,-1,74,76,-1,-1,-1,-1,-1,-1,78,80,-1,82,-1,84,-1,86,-1,88,90,-1,-1,-1,-1,-1,-1,-1,-1,-1,-1,-1,-1,-1,-1,-1,-1,-1,-1,-1,-1,-1,-1,-1,-1,-1,-1,-1,-1,-1,-1,-1,-1],"split_conditions":[1.132E2,1.063E2,1.197E2,1.018E2,1.095E2,1.153E2,1.242E2,9.75E1,1.042E2,1.081E2,1.111E2,1.143E2,1.184E2,1.217E2,1.272E2,9.51E1,9.94E1,1.028E2,1.054E2,1.072E2,1.086E2,1.101E2,-5.9594095E-1,5.991997E-1,1.142E2,1.163E2,1.187E2,1.204E2,1.234E2,1.254E2,1.299E2,9.15E1,4.47E-1,9.85E1,1.009E2,5.9217745E-1,1.033E2,6.9E1,1.054E2,-5.967203E-1,1.071E2,1.076E2,5.918889E-1,-5.949779E-1,5.675385E-1,-5.143121E-1,5.917786E-1,-5.902742E-1,1.172E2,1.177E2,5.9725755E-1,1.193E2,-5.975167E-1,1.228E2,-5.905441E-1,1.246E2,5.915779E-1,9E0,1.341E2,3.2854214E-1,-4.8939162E-1,-1.5377998E-5,5.750438E-1,-5.778074E-1,5.265024E-1,-5.9345526E-1,-4.1252884E-1,-4.617514E-2,-5.739425E-1,5.9787995E-1,1.4998463E-1,-4.7370848E-1,5.787314E-1,4.3997747E-1,-4.9567762E-1,4.4997695E-1,-4.1540593E-1,5.4890805E-1,-5.3210396E-1,4.2854947E-1,-3.000154E-1,-5.744975E-1,4.4997695E-1,5.6959105E-1,5.4525882E-2,5.592934E-1,-4.9567762E-1,-5.7564E-1,-1.5001538E-1,5.323645E-1,-3.204179E-1],"split_indices":[26,12,12,26,12,12,26,12,26,26,12,12,26,26,12,26,12,12,12,26,26,26,0,0,26,26,26,12,12,26,26,12,33,26,26,0,12,32,26,0,12,12,0,0,0,0,0,0,12,12,0,26,0,12,0,12,0,25,12,0,0,0,0,0,0,0,0,0,0,0,0,0,0,0,0,0,0,0,0,0,0,0,0,0,0,0,0,0,0,0,0],"split_type":[0,0,0,0,0,0,0,0,0,0,0,0,0,0,0,0,0,0,0,0,0,0,0,0,0,0,0,0,0,0,0,0,0,0,0,0,0,0,0,0,0,0,0,0,0,0,0,0,0,0,0,0,0,0,0,0,0,0,0,0,0,0,0,0,0,0,0,0,0,0,0,0,0,0,0,0,0,0,0,0,0,0,0,0,0,0,0,0,0,0,0],"sum_hessian":[4.88225E3,2.58175E3,2.3005E3,9.3425E2,1.6475E3,1.554E3,7.465E2,3.7225E2,5.62E2,2.6625E2,1.38125E3,1.24675E3,3.0725E2,4.6525E2,2.8125E2,1.385E2,2.3375E2,1.0025E2,4.6175E2,1.8775E2,7.85E1,1.3525E2,1.246E3,1.1685E3,7.825E1,8.35E1,2.2375E2,3.825E2,8.275E1,1.605E2,1.2075E2,5.425E1,8.425E1,3.725E1,1.965E2,7.6E1,2.425E1,4.3075E2,3.1E1,1.8025E2,7.5E0,5.25E0,7.325E1,1.1775E2,1.75E1,6E0,7.225E1,6.05E1,2.3E1,3.5E0,2.2025E2,2.55E1,3.57E2,2.05E1,6.225E1,1.85E1,1.42E2,6.15E1,5.925E1,2E1,3.425E1,1E0,8.325E1,2.6E1,1.125E1,1.815E2,1.5E1,2.25E0,2.2E1,4.2975E2,1E0,3.75E0,2.725E1,2.75E0,4.75E0,3E0,2.25E0,1.075E1,1.225E1,2.5E0,1E0,2.25E1,3E0,1.875E1,1.75E0,1.375E1,4.75E0,6.05E1,1E0,3.45E1,2.475E1],"tree_param":{"num_deleted":"0","num_feature":"38","num_nodes":"91","size_leaf_vector":"1"}},{"base_weights":[4.758729E-5,6.497527E-1,-7.29012E-1,-6.017272E-1,1.3628572E0,-1.3909091E0,6.4299697E-1,5.9770095E-1,-1.4012847E0,6.265316E-1,1.5044767E0,-1.5348411E0,-8.0456585E-1,1.3968369E0,-5.934801E-1,-7.076909E-1,1.3823993E0,-8.317205E-1,-1.523166E0,1.4995339E0,-1.4492077E0,1.1415285E0,4.6286187E-1,-4.6487924E-1,-1.2962742E0,1.1352351E0,-1.5323446E0,1.5227696E0,8.042418E-1,-1.4491311E0,5.274611E-1,5.887623E-1,-1.4570181E0,6.28038E-1,1.5216315E0,-4.638651E-1,1.3820392E0,-4.6441218E-1,-1.1361029E0,4.630434E-1,3.898133E-1,-2.0835379E-1,-4.603163E-1,4.6137458E-1,-4.3803075E-1,3.9316833E-1,-4.5862228E-1,4.5866072E-1,8.203135E-2,-5.261709E-1,-4.6373206E-1,1.1368678E0,4.6402648E-1,-1.3830326E0,4.6070853E-1,-7.1400476E-1,-4.616022E-1,4.5110762E-1,-4.6747202E-1,-3.5658115E-1,4.1162384E-1,-1.5684456E-1,-4.5636323E-1,4.529817E-1,-4.1245928E-1,4.6579874E-1,3.19787E-1,3.3158615E-2,4.5021084E-1,3.6010477E-1,-4.4738904E-1,-3.330081E-1,3.8770926E-1,-3.5014516E-1,3.138812E-1,-4.2563176E-1,4.2111927E-1,-3.1881037E-1,1.4654696E-1,4.435661E-1,-3.4096766E-1,-4.459077E-1,-3.9335232E-2,-4.323549E-1,3.7983903E-1,-4.2933863E-1,3.2776353E-1],"categories":[],"categories_nodes":[],"categories_segments":[],"categories_sizes":[],"default_left":[0,0,0,0,0,0,0,0,0,0,0,0,0,0,0,0,0,0,0,0,0,0,0,0,0,0,0,0,0,0,0,0,0,0,0,0,0,0,0,0,0,0,0,0,0,0,0,0,0,0,0,0,0,0,0,0,0,0,0,0,0,0,0,0,0,0,0,0,0,0,0,0,0,0,0,0,0,0,0,0,0,0,0,0,0,0,0],"id":1,"left_children":[1,3,5,7,9,11,13,15,17,19,21,23,25,27,29,31,33,35,37,39,41,43,-1,-1,45,47,49,51,53,55,57,59,61,63,65,-1,67,-1,69,-1,71,73,-1,-1,-1,-1,-1,-1,75,77,-1,79,-1,81,-1,83,-1,-1,85,-1,-1,-1,-1,-1,-1,-1,-1,-1,-1,-1,-1,-1,-1,-1,-1,-1,-1,-1,-1,-1,-1,-1,-1,-1,-1,-1,-1],"loss_changes":[2.1234365E3,2.116305E3,1.9192693E3,8.266649E2,1.5655249E2,1.1905151E2,6.4224927E2,3.5451303E2,3.4622253E1,4.4676544E2,1.5881592E1,2.0163574E0,4.012911E2,3.0700989E1,2.5142247E2,1.2737973E2,2.1720276E1,1.4976334E2,2.329834E0,7.8444824E0,7.411377E0,1.3111113E2,0E0,0E0,4.606903E1,3.2124023E1,1.9732361E0,1.4970093E0,1.2547241E2,8.674652E0,1.1129746E2,6.903714E1,4.1714325E0,6.450269E1,9.121399E-1,0E0,3.3498688E0,0E0,2.6189331E1,0E0,1.2176252E1,8.265133E0,0E0,0E0,0E0,0E0,0E0,0E0,4.6068058E1,2.8231442E0,0E0,2.0598822E1,0E0,2.3725014E0,0E0,2.772457E1,0E0,0E0,8.748556E1,0E0,0E0,0E0,0E0,0E0,0E0,0E0,0E0,0E0,0E0,0E0,0E0,0E0,0E0,0E0,0E0,0E0,0E0,0E0,0E0,0E0,0E0,0E0,0E0,0E0,0E0,0E0,0E0],"parents":[2147483647,0,0,1,1,2,2,3,3,4,4,5,5,6,6,7,7,8,8,9,9,10,10,11,11,12,12,13,13,14,14,15,15,16,16,17,17,18,18,19,19,20,20,21,21,24,24,25,25,26,26,27,27,28,28,29,29,30,30,31,31,32,32,33,33,34,34,36,36,38,38,40,40,41,41,48,48,49,49,51,51,53,53,55,55,58,58],"right_children":[2,4,6,8,10,12,14,16,18,20,22,24,26,28,30,32,34,36,38,40,42,44,-1,-1,46,48,50,52,54,56,58,60,62,64,66,-1,68,-1,70,-1,72,74,-1,-1,-1,-1,-1,-1,76,78,-1,80,-1,82,-1,84,-1,-1,86,-1,-1,-1,-1,-1,-1,-1,-1,-1,-1,-1,-1,-1,-1,-1,-1,-1,-1,-1,-1,-1,-1,-1,-1,-1,-1,-1,-1],"split_conditions":[1.132E2,1.063E2,1.197E2,1.018E2,1.095E2,1.153E2,1.242E2,9.75E1,1.042E2,1.081E2,1.111E2,1.143E2,1.184E2,1.217E2,1.272E2,9.44E1,9.94E1,1.028E2,1.054E2,1.072E2,1.086E2,1.101E2,4.6286187E-1,-4.6487924E-1,1.142E2,1.163E2,1.187E2,1.204E2,1.234E2,1.254E2,1.299E2,9.05E1,9.54E1,9.85E1,1.009E2,-4.638651E-1,1.033E2,-4.6441218E-1,1.054E2,4.630434E-1,1.071E2,1.076E2,-4.603163E-1,4.6137458E-1,-4.3803075E-1,3.9316833E-1,-4.5862228E-1,4.5866072E-1,1.172E2,1.175E2,-4.6373206E-1,1.193E2,4.6402648E-1,1.228E2,4.6070853E-1,1.246E2,-4.616022E-1,4.5110762E-1,1.349E2,-3.5658115E-1,4.1162384E-1,-1.5684456E-1,-4.5636323E-1,4.529817E-1,-4.1245928E-1,4.6579874E-1,3.19787E-1,3.3158615E-2,4.5021084E-1,3.6010477E-1,-4.4738904E-1,-3.330081E-1,3.8770926E-1,-3.5014516E-1,3.138812E-1,-4.2563176E-1,4.2111927E-1,-3.1881037E-1,1.4654696E-1,4.435661E-1,-3.4096766E-1,-4.459077E-1,-3.9335232E-2,-4.323549E-1,3.7983903E-1,-4.2933863E-1,3.2776353E-1],"split_indices":[12,26,26,12,26,26,12,26,12,12,26,26,12,12,26,12,26,26,26,12,12,12,0,0,12,12,12,26,26,12,12,26,12,12,12,0,26,0,12,0,26,26,0,0,0,0,0,0,26,26,0,12,0,26,0,26,0,0,26,0,0,0,0,0,0,0,0,0,0,0,0,0,0,0,0,0,0,0,0,0,0,0,0,0,0,0,0],"split_type":[0,0,0,0,0,0,0,0,0,0,0,0,0,0,0,0,0,0,0,0,0,0,0,0,0,0,0,0,0,0,0,0,0,0,0,0,0,0,0,0,0,0,0,0,0,0,0,0,0,0,0,0,0,0,0,0,0,0,0,0,0,0,0,0,0,0,0,0,0,0,0,0,0,0,0,0,0,0,0,0,0,0,0,0,0,0,0],"sum_hessian":[4.4809097E3,2.3694612E3,2.1114482E3,8.601234E2,1.5093379E3,1.4243073E3,6.8714105E2,3.4413452E2,5.159889E2,2.4434306E2,1.2649948E3,1.1422878E3,2.8201947E2,4.2680325E2,2.603378E2,1.2923787E2,2.1489665E2,9.233262E1,4.2365625E2,1.7219846E2,7.214462E1,1.2396035E2,1.1410344E3,1.0705728E3,7.171504E1,7.6788826E1,2.0523064E2,3.507051E2,7.609816E1,1.474736E2,1.128642E2,4.7415657E1,8.182221E1,3.4341995E1,1.8055466E2,7.0031364E1,2.2301256E1,3.952558E2,2.8400461E1,1.6526328E2,6.9351673E0,4.855685E0,6.728893E1,1.07925575E2,1.603477E1,5.4919376E0,6.62231E1,5.556851E1,2.1220318E1,3.2322583E0,2.0199837E2,2.3354288E1,3.273508E2,1.8847483E1,5.725068E1,1.6987116E1,1.304865E2,5.670942E1,5.6154778E1,1.4346252E1,3.3069405E1,5.8487616E0,7.597345E1,2.4014332E1,1.0327662E1,1.667891E2,1.3765555E1,2.068474E0,2.0232782E1,3.4337783E0,2.4966682E1,2.519101E0,4.4160666E0,2.791848E0,2.0638373E0,9.90249E0,1.1317827E1,2.0833058E0,1.1489526E0,2.0606812E1,2.7474754E0,1.723752E1,1.6099627E0,1.2623487E1,4.363629E0,3.476333E1,2.139145E1],"tree_param":{"num_deleted":"0","num_feature":"38","num_nodes":"87","size_leaf_vector":"1"}},{"base_weights":[-1.4046184E-4,5.8999246E-1,-5.9929067E-1,-5.0233394E-1,1.204709E0,-1.1984721E0,5.4031724E-1,4.8043236E-1,-1.2198681E0,6.1542946E-1,1.3237844E0,-1.3182368E0,-6.3478243E-1,1.1751825E0,-5.4768187E-1,-7.8291965E-1,1.0683887E0,-1.3066208E0,-6.68809E-1,1.3183016E0,-1.2001469E0,1.1355687E0,4.0435073E-1,-4.035592E-1,-1.0617268E0,1.1932797E0,-1.2998738E0,4.012713E-1,6.4836466E-1,-1.1752931E0,5.666492E-1,5.0339144E-1,-1.3290511E0,4.044039E-1,1.3018243E0,-8.631463E-1,-1.333523E0,3.8423476E-1,-3.9582336E-1,4.0172863E-1,2.9994902E-1,-1.2781954E-1,-3.9527604E-1,3.9965013E-1,-3.7667376E-1,3.741917E-1,-4.00213E-1,3.974949E-1,6.381024E-2,-1.8847466E-1,-4.0262538E-1,-1.1913655E0,1.2737579E0,-3.9742622E-1,-5.907017E-1,1.1003753E0,-8.793019E-1,-2.9827887E-1,3.729531E-1,-4.06138E-1,-1.13157E-1,4.0753615E-1,-2.997091E-1,4.0171188E-1,2.430767E-1,-3.8370445E-1,3.2844648E-1,-4.0072483E-1,-1.211453E-1,-2.2570361E-1,2.8651264E-1,-3.182512E-1,3.0016145E-1,-3.0459127E-1,3.168072E-1,-3.2082802E-1,3.096595E-1,-3.9035508E-1,-3.65238E-2,7.874519E-2,3.97786E-1,3.7498522E-1,-3.9720353E-1,1.4579715E-1,4.0368882E-1,-4.1355285E-1,1.1806489E-1],"categories":[],"categories_nodes":[],"categories_segments":[],"categories_sizes":[],"default_left":[0,0,0,0,0,0,0,0,0,0,0,0,0,0,0,0,0,0,0,0,0,0,0,0,0,0,0,0,0,0,0,0,0,0,0,0,0,0,0,0,0,0,0,0,0,0,0,0,0,0,0,0,0,0,0,0,0,0,0,0,0,0,0,0,0,0,0,0,0,0,0,0,0,0,0,0,0,0,0,0,0,0,0,0,0,0,0],"id":2,"left_children":[1,3,5,7,9,11,13,15,17,19,21,23,25,27,29,31,33,35,37,39,41,43,-1,-1,45,47,49,-1,51,53,55,57,59,61,63,65,67,-1,-1,-1,69,71,-1,-1,-1,-1,-1,-1,73,75,-1,77,79,-1,81,83,85,-1,-1,-1,-1,-1,-1,-1,-1,-1,-1,-1,-1,-1,-1,-1,-1,-1,-1,-1,-1,-1,-1,-1,-1,-1,-1,-1,-1,-1,-1],"loss_changes":[1.3305859E3,1.273625E3,1.2757227E3,4.8251144E2,8.43313E1,8.1806885E1,4.4559076E2,2.1559595E2,1.802356E1,2.6427216E2,3.0350342E0,5.5477295E0,2.6471118E2,3.3960876E1,1.6715283E2,6.55793E1,3.0120224E1,2.9110718E0,7.2486374E1,2.750885E0,7.1325073E0,5.8380722E1,0E0,0E0,6.497235E1,8.582176E0,7.214813E0,0E0,1.1411465E2,1.2551514E1,6.768002E1,3.255048E1,1.0233841E0,7.216353E1,1.5830536E0,1.956478E1,1.2121582E-1,0E0,0E0,0E0,3.660483E0,8.25185E0,0E0,0E0,0E0,0E0,0E0,0E0,8.711534E0,8.61834E0,0E0,2.8186188E0,3.5325775E0,0E0,4.6032204E1,8.926697E0,1.570443E1,0E0,0E0,0E0,0E0,0E0,0E0,0E0,0E0,0E0,0E0,0E0,0E0,0E0,0E0,0E0,0E0,0E0,0E0,0E0,0E0,0E0,0E0,0E0,0E0,0E0,0E0,0E0,0E0,0E0,0E0],"parents":[2147483647,0,0,1,1,2,2,3,3,4,4,5,5,6,6,7,7,8,8,9,9,10,10,11,11,12,12,13,13,14,14,15,15,16,16,17,17,18,18,19,19,20,20,21,21,24,24,25,25,26,26,28,28,29,29,30,30,31,31,32,32,33,33,34,34,35,35,36,36,40,40,41,41,48,48,49,49,51,51,52,52,54,54,55,55,56,56],"right_children":[2,4,6,8,10,12,14,16,18,20,22,24,26,28,30,32,34,36,38,40,42,44,-1,-1,46,48,50,-1,52,54,56,58,60,62,64,66,68,-1,-1,-1,70,72,-1,-1,-1,-1,-1,-1,74,76,-1,78,80,-1,82,84,86,-1,-1,-1,-1,-1,-1,-1,-1,-1,-1,-1,-1,-1,-1,-1,-1,-1,-1,-1,-1,-1,-1,-1,-1,-1,-1,-1,-1,-1,-1],"split_conditions":[1.124E2,1.06E2,1.19E2,1.018E2,1.094E2,1.153E2,1.242E2,9.57E1,1.044E2,1.076E2,1.114E2,1.137E2,1.172E2,1.207E2,1.286E2,9.29E1,9.94E1,1.026E2,1.049E2,1.072E2,1.084E2,1.104E2,4.0435073E-1,-4.035592E-1,1.142E2,1.163E2,1.18E2,4.012713E-1,1.223E2,1.26E2,1.349E2,8.89E1,9.54E1,9.67E1,1.009E2,1.017E2,2.2E1,3.8423476E-1,-3.9582336E-1,4.0172863E-1,1.066E2,1.074E2,-3.9527604E-1,3.9965013E-1,-3.7667376E-1,3.741917E-1,-4.00213E-1,3.974949E-1,1.16E2,1.172E2,-4.0262538E-1,1.217E2,1.232E2,-3.9742622E-1,1.272E2,1.315E2,1.375E2,-2.9827887E-1,3.729531E-1,-4.06138E-1,-1.13157E-1,4.0753615E-1,-2.997091E-1,4.0171188E-1,2.430767E-1,-3.8370445E-1,3.2844648E-1,-4.0072483E-1,-1.211453E-1,-2.2570361E-1,2.8651264E-1,-3.182512E-1,3.0016145E-1,-3.0459127E-1,3.168072E-1,-3.2082802E-1,3.096595E-1,-3.9035508E-1,-3.65238E-2,7.874519E-2,3.97786E-1,3.7498522E-1,-3.9720353E-1,1.4579715E-1,4.0368882E-1,-4.1355285E-1,1.1806489E-1],"split_indices":[12,26,26,12,26,26,12,26,26,12,26,26,12,12,26,12,26,12,12,12,12,12,0,0,12,12,12,0,26,26,12,26,26,12,12,26,23,0,0,0,26,26,0,0,0,0,0,0,26,26,0,26,26,0,12,26,26,0,0,0,0,0,0,0,0,0,0,0,0,0,0,0,0,0,0,0,0,0,0,0,0,0,0,0,0,0,0],"split_type":[0,0,0,0,0,0,0,0,0,0,0,0,0,0,0,0,0,0,0,0,0,0,0,0,0,0,0,0,0,0,0,0,0,0,0,0,0,0,0,0,0,0,0,0,0,0,0,0,0,0,0,0,0,0,0,0,0,0,0,0,0,0,0,0,0,0,0,0,0,0,0,0,0,0,0,0,0,0,0,0,0,0,0,0,0,0,0],"sum_hessian":[3.7612007E3,1.8948668E3,1.8663337E3,6.824189E2,1.212448E3,1.223167E3,6.431667E2,2.8812317E2,3.9429572E2,2.0485088E2,1.0075971E3,1.007722E3,2.1544507E2,4.0611298E2,2.3705371E2,9.139962E1,1.9672354E2,3.394805E2,5.481523E1,1.4787663E2,5.6974243E1,1.1963096E2,8.879662E2,9.0803864E2,9.968331E1,5.726181E1,1.5818326E2,3.0924963E2,9.686334E1,1.516097E2,8.5444016E1,2.7263584E1,6.413603E1,5.188218E1,1.4484137E2,2.130805E1,3.1817245E2,1.3473123E1,4.134211E1,1.446089E2,3.2677279E0,5.8299713E0,5.114427E1,1.1095149E2,8.679468E0,1.0138268E1,8.9545044E1,5.112698E1,6.1348286E0,5.9879107E0,1.5219536E2,2.4344305E1,7.251904E1,1.19732025E2,3.187767E1,6.2582645E1,2.2861368E1,8.900676E0,1.8362907E1,6.2099594E1,2.0364394E0,3.0905067E1,2.097711E1,1.330449E2,1.1796456E1,1.7861143E1,3.4469068E0,3.1697665E2,1.1957994E0,1.1968073E0,2.0709205E0,3.2239702E0,2.606001E0,2.9275758E0,3.2072527E0,3.549885E0,2.4380255E0,2.188126E1,2.4630451E0,3.8551493E0,6.8663895E1,8.8810835E0,2.2996588E1,1.8705402E1,4.3877243E1,1.6361458E1,6.49991E0],"tree_param":{"num_deleted":"0","num_feature":"38","num_nodes":"87","size_leaf_vector":"1"}},{"base_weights":[-1.19977434E-4,5.3494054E-1,-5.434431E-1,-4.4987568E-1,1.0992234E0,-1.0931778E0,4.8365632E-1,4.2392695E-1,-1.1070154E0,5.582522E-1,1.2090902E0,-1.2170459E0,-6.306181E-1,1.0812078E0,-4.6158534E-1,-5.133654E-1,1.0570744E0,-6.307542E-1,-1.2011544E0,1.2012986E0,-1.0813446E0,1.0294812E0,3.6958495E-1,-3.693578E-1,-1.0277218E0,1.1306323E0,-1.1402392E0,3.6627778E-1,6.139664E-1,-1.1036992E0,4.107347E-1,6.603938E-1,-9.882996E-1,3.6742437E-1,5.828333E-1,-3.6378223E-1,3.5622337E-1,-1.2204897E0,-7.166586E-1,3.6676937E-1,2.5237682E-1,-1.08443044E-1,-1.1937058E0,1.213356E0,-3.367005E-1,3.1835315E-1,-3.6345917E-1,4.5039546E-1,3.6197224E-1,-3.2755765E-1,-3.678451E-1,-1.049178E0,1.1855779E0,-5.449051E-1,-1.1943235E0,9.6715385E-1,-6.590651E-1,-3.9312702E-1,3.176388E-1,-3.5313118E-1,-9.053075E-2,-3.4165585E-1,3.7267923E-1,-3.6684245E-1,-1.0642382E-1,2.5700673E-1,-3.3562225E-1,-2.023182E-1,2.536679E-1,-2.8240055E-1,2.6653177E-1,-3.6264816E-1,-8.594009E-2,3.6600098E-1,1.13494895E-1,2.966938E-1,-2.2459564E-1,-3.4245512E-1,3.310076E-1,-3.965988E-3,-3.4975988E-1,5.5365574E-2,3.6598182E-1,-3.5295326E-1,3.251191E-1,-3.6363488E-1,-1.02303736E-1,3.684503E-1,9.365301E-2,-3.8705346E-1,1.05820894E-1],"categories":[],"categories_nodes":[],"categories_segments":[],"categories_sizes":[],"default_left":[0,0,0,0,0,0,0,0,0,0,0,0,0,0,0,0,0,0,0,0,0,0,0,0,0,0,0,0,0,0,0,0,0,0,0,0,0,0,0,0,0,0,0,0,0,0,0,0,0,0,0,0,0,0,0,0,0,0,0,0,0,0,0,0,0,0,0,0,0,0,0,0,0,0,0,0,0,0,0,0,0,0,0,0,0,0,0,0,0,0,0],"id":3,"left_children":[1,3,5,7,9,11,13,15,17,19,21,23,25,27,29,31,33,35,37,39,41,43,-1,-1,45,47,49,-1,51,53,55,57,59,-1,61,-1,-1,63,65,-1,67,69,71,73,-1,-1,-1,75,-1,77,-1,79,81,83,85,87,89,-1,-1,-1,-1,-1,-1,-1,-1,-1,-1,-1,-1,-1,-1,-1,-1,-1,-1,-1,-1,-1,-1,-1,-1,-1,-1,-1,-1,-1,-1,-1,-1,-1,-1],"loss_changes":[8.812873E2,8.492711E2,8.498104E2,3.203467E2,5.7053345E1,5.5385742E1,2.9708133E2,1.428747E2,1.3510223E1,1.7612796E2,2.0428467E0,8.0236816E-1,1.889589E2,2.0271698E1,1.1476131E2,5.4931618E1,1.0694748E1,5.923015E1,1.604126E0,2.104538E0,5.034584E0,3.9795914E1,0E0,0E0,2.4216862E1,1.9064369E0,1.0955139E1,0E0,7.362384E1,5.3155975E0,5.257689E1,2.3881355E1,8.681946E0,0E0,4.6128742E1,0E0,0E0,7.409668E-2,8.914886E0,0E0,2.703936E0,5.810438E0,2.3330688E-1,3.7841797E-2,0E0,0E0,0E0,4.8465757E0,0E0,2.0961706E1,0E0,2.4028358E0,1.739975E0,2.007919E1,1.1130981E0,9.498974E0,1.9899055E1,0E0,0E0,0E0,0E0,0E0,0E0,0E0,0E0,0E0,0E0,0E0,0E0,0E0,0E0,0E0,0E0,0E0,0E0,0E0,0E0,0E0,0E0,0E0,0E0,0E0,0E0,0E0,0E0,0E0,0E0,0E0,0E0,0E0,0E0],"parents":[2147483647,0,0,1,1,2,2,3,3,4,4,5,5,6,6,7,7,8,8,9,9,10,10,11,11,12,12,13,13,14,14,15,15,16,16,17,17,18,18,19,19,20,20,21,21,24,24,25,25,26,26,28,28,29,29,30,30,31,31,32,32,34,34,37,37,38,38,40,40,41,41,42,42,43,43,47,47,49,49,51,51,52,52,53,53,54,54,55,55,56,56],"right_children":[2,4,6,8,10,12,14,16,18,20,22,24,26,28,30,32,34,36,38,40,42,44,-1,-1,46,48,50,-1,52,54,56,58,60,-1,62,-1,-1,64,66,-1,68,70,72,74,-1,-1,-1,76,-1,78,-1,80,82,84,86,88,90,-1,-1,-1,-1,-1,-1,-1,-1,-1,-1,-1,-1,-1,-1,-1,-1,-1,-1,-1,-1,-1,-1,-1,-1,-1,-1,-1,-1,-1,-1,-1,-1,-1,-1],"split_conditions":[1.124E2,1.06E2,1.19E2,1.018E2,1.094E2,1.146E2,1.24E2,9.75E1,1.039E2,1.076E2,1.114E2,1.134E2,1.161E2,1.206E2,1.275E2,9.24E1,9.91E1,1.028E2,1.054E2,1.072E2,1.084E2,1.104E2,3.6958495E-1,-3.693578E-1,1.136E2,1.151E2,1.18E2,3.6627778E-1,1.223E2,1.254E2,1.329E2,8.59E1,9.54E1,3.6742437E-1,1.007E2,-3.6378223E-1,3.5622337E-1,1.24E2,1.049E2,3.6676937E-1,1.066E2,1.074E2,1.093E2,1.1E2,-3.367005E-1,3.1835315E-1,-3.6345917E-1,1.141E2,3.6197224E-1,1.172E2,-3.678451E-1,1.21E2,1.228E2,1.246E2,1.272E2,1.295E2,1.349E2,-3.9312702E-1,3.176388E-1,-3.5313118E-1,-9.053075E-2,-3.4165585E-1,3.7267923E-1,-3.6684245E-1,-1.0642382E-1,2.5700673E-1,-3.3562225E-1,-2.023182E-1,2.536679E-1,-2.8240055E-1,2.6653177E-1,-3.6264816E-1,-8.594009E-2,3.6600098E-1,1.13494895E-1,2.966938E-1,-2.2459564E-1,-3.4245512E-1,3.310076E-1,-3.965988E-3,-3.4975988E-1,5.5365574E-2,3.6598182E-1,-3.5295326E-1,3.251191E-1,-3.6363488E-1,-1.02303736E-1,3.684503E-1,9.365301E-2,-3.8705346E-1,1.05820894E-1],"split_indices":[12,26,26,12,26,26,12,26,12,12,26,26,12,12,26,12,12,26,26,12,12,12,0,0,12,26,12,0,26,12,12,26,26,0,26,0,0,28,12,0,26,26,26,12,0,0,0,12,0,26,0,12,26,26,26,12,26,0,0,0,0,0,0,0,0,0,0,0,0,0,0,0,0,0,0,0,0,0,0,0,0,0,0,0,0,0,0,0,0,0,0],"split_type":[0,0,0,0,0,0,0,0,0,0,0,0,0,0,0,0,0,0,0,0,0,0,0,0,0,0,0,0,0,0,0,0,0,0,0,0,0,0,0,0,0,0,0,0,0,0,0,0,0,0,0,0,0,0,0,0,0,0,0,0,0,0,0,0,0,0,0,0,0,0,0,0,0,0,0,0,0,0,0,0,0,0,0,0,0,0,0,0,0,0,0],"sum_hessian":[3.0294922E3,1.5263597E3,1.5031323E3,5.5607355E2,9.702862E2,9.790505E2,5.2408185E2,2.3884062E2,3.1723294E2,1.6481888E2,8.054673E2,7.709642E2,2.080863E2,3.2100742E2,2.0307443E2,9.636862E1,1.42472E2,5.362708E1,2.6360587E2,1.1857955E2,4.623933E1,9.61381E1,7.093292E2,7.122409E2,5.8723248E1,4.6424545E1,1.6166176E2,2.4587186E2,7.513555E1,1.1681891E2,8.625552E1,2.7648132E1,6.872049E1,1.0408795E2,3.838404E1,4.087821E1,1.2748873E1,2.5202876E2,1.1577115E1,1.156983E2,2.8812492E0,4.990783E0,4.1248547E1,8.897152E1,7.1665797E0,4.36329E0,5.435996E1,5.358398E0,4.106615E1,1.5916005E1,1.4574576E2,1.9004662E1,5.6130894E1,1.7280338E1,9.9538574E1,5.680587E1,2.944965E1,4.264298E0,2.3383835E1,5.333746E1,1.5383026E1,1.0428801E1,2.795524E1,2.5094432E2,1.0844433E0,2.1262946E0,9.45082E0,1.071017E0,1.8102322E0,2.749394E0,2.2413893E0,4.0245335E1,1.0032107E0,8.78115E1,1.1600207E0,3.8184404E0,1.5399573E0,1.0274008E1,5.641998E0,2.036644E0,1.6968018E1,2.0742512E0,5.405664E1,1.26515255E1,4.6288137E0,9.709356E1,2.4450135E0,3.9993145E1,1.6812727E1,1.796735E1,1.1482299E1],"tree_param":{"num_deleted":"0","num_feature":"38","num_nodes":"91","size_leaf_vector":"1"}},{"base_weights":[-2.889513E-4,4.9797535E-1,-5.06571E-1,-4.1322336E-1,1.0324104E0,-1.027002E0,4.430595E-1,4.5279112E-1,-9.8488134E-1,5.1947474E-1,1.1372651E0,-1.1450068E0,-5.8832395E-1,1.0502037E0,-3.5922873E-1,-5.521548E-1,9.554067E-1,-1.1363698E0,-4.7754017E-1,1.1260425E0,-1.0009322E0,9.598752E-1,3.479191E-1,-3.477149E-1,-9.5521384E-1,1.0521418E0,-1.068232E0,5.873218E-1,1.143482E0,-9.9563134E-1,3.9152452E-1,7.672444E-1,-9.09873E-1,4.3658906E-1,1.1351022E0,-3.4745985E-1,-8.971361E-1,1.1037321E0,-3.424707E-1,3.4465554E-1,2.1465711E-1,-9.3237095E-2,-1.1124829E0,3.438322E-1,-2.8632882E-1,2.8774878E-1,-3.4076652E-1,3.9276442E-1,3.387792E-1,-2.941617E-1,-3.4570092E-1,3.3849165E-1,-3.3586663E-1,4.8911318E-1,3.4470886E-1,-4.982798E-1,-3.4220314E-1,1.0954678E0,-3.1914943E-1,-2.8460366E-1,3.3318004E-1,-3.612744E-1,-9.261868E-2,3.530985E-1,-2.632021E-1,2.1537626E-1,3.478443E-1,2.4570024E-1,-3.3310407E-1,3.5244885E-1,1.1977844E-1,-1.404584E-1,2.1770787E-1,-2.5443304E-1,2.3986976E-1,-3.3943257E-1,-8.601615E-2,2.6971537E-1,-2.033637E-1,-3.154946E-1,3.0028132E-1,1.2999384E-2,2.0143786E-1,-3.3197045E-1,2.8430533E-1,3.4216195E-1,1.0725817E-1,-3.306982E-1,1.7479105E-1],"categories":[],"categories_nodes":[],"categories_segments":[],"categories_sizes":[],"default_left":[0,0,0,0,0,0,0,0,0,0,0,0,0,0,0,0,0,0,0,0,0,0,0,0,0,0,0,0,0,0,0,0,0,0,0,0,0,0,0,0,0,0,0,0,0,0,0,0,0,0,0,0,0,0,0,0,0,0,0,0,0,0,0,0,0,0,0,0,0,0,0,0,0,0,0,0,0,0,0,0,0,0,0,0,0,0,0,0,0],"id":4,"left_children":[1,3,5,7,9,11,13,15,17,19,21,23,25,27,29,31,33,35,37,39,41,43,-1,-1,45,47,49,51,53,55,57,59,61,63,65,-1,67,69,-1,-1,71,73,75,-1,-1,-1,-1,77,-1,79,-1,-1,-1,81,-1,83,-1,85,87,-1,-1,-1,-1,-1,-1,-1,-1,-1,-1,-1,-1,-1,-1,-1,-1,-1,-1,-1,-1,-1,-1,-1,-1,-1,-1,-1,-1,-1,-1],"loss_changes":[6.025694E2,5.8668005E2,5.860027E2,2.2113046E2,4.0236206E1,3.8961426E1,2.0502982E2,9.040289E1,2.0118958E1,1.216427E2,1.3950195E0,4.9816895E-1,1.3051994E2,9.665375E0,8.721704E1,2.899605E1,1.0596687E1,3.829956E-2,6.797706E1,1.7050095E0,3.7232819E0,2.8385735E1,0E0,0E0,1.7408134E1,1.4738045E0,7.9717865E0,4.0239235E1,1.5750122E-1,6.5472336E0,4.2418816E1,8.907797E0,8.05616E0,3.2389984E1,5.998993E-2,0E0,8.844437E0,4.9758148E-1,0E0,0E0,1.5688115E0,4.201577E0,2.0111465E-1,0E0,0E0,0E0,0E0,3.5806594E0,0E0,1.4643255E1,0E0,0E0,0E0,2.4787802E-1,0E0,2.2199455E1,0E0,1.0048561E0,3.0743355E1,0E0,0E0,0E0,0E0,0E0,0E0,0E0,0E0,0E0,0E0,0E0,0E0,0E0,0E0,0E0,0E0,0E0,0E0,0E0,0E0,0E0,0E0,0E0,0E0,0E0,0E0,0E0,0E0,0E0,0E0],"parents":[2147483647,0,0,1,1,2,2,3,3,4,4,5,5,6,6,7,7,8,8,9,9,10,10,11,11,12,12,13,13,14,14,15,15,16,16,17,17,18,18,19,19,20,20,21,21,24,24,25,25,26,26,27,27,28,28,29,29,30,30,31,31,32,32,33,33,34,34,36,36,37,37,40,40,41,41,42,42,47,47,49,49,53,53,55,55,57,57,58,58],"right_children":[2,4,6,8,10,12,14,16,18,20,22,24,26,28,30,32,34,36,38,40,42,44,-1,-1,46,48,50,52,54,56,58,60,62,64,66,-1,68,70,-1,-1,72,74,76,-1,-1,-1,-1,78,-1,80,-1,-1,-1,82,-1,84,-1,86,88,-1,-1,-1,-1,-1,-1,-1,-1,-1,-1,-1,-1,-1,-1,-1,-1,-1,-1,-1,-1,-1,-1,-1,-1,-1,-1,-1,-1,-1,-1],"split_conditions":[1.124E2,1.06E2,1.19E2,1.009E2,1.094E2,1.146E2,1.232E2,9.57E1,1.035E2,1.076E2,1.114E2,1.134E2,1.161E2,1.21E2,1.272E2,9.05E1,9.91E1,1.025E2,1.049E2,1.072E2,1.084E2,1.103E2,3.479191E-1,-3.477149E-1,1.136E2,1.151E2,1.18E2,1.2E2,5.46E-1,1.256E2,1.299E2,8.59E1,9.29E1,9.67E1,9.96E1,-3.4745985E-1,1.025E2,1.044E2,-3.424707E-1,3.4465554E-1,1.083E2,1.074E2,1.06E2,3.438322E-1,-2.8632882E-1,2.8774878E-1,-3.4076652E-1,1.141E2,3.387792E-1,1.172E2,-3.4570092E-1,3.3849165E-1,-3.3586663E-1,1.22E2,3.4470886E-1,1.242E2,-3.4220314E-1,1.292E2,1.341E2,-2.8460366E-1,3.3318004E-1,-3.612744E-1,-9.261868E-2,3.530985E-1,-2.632021E-1,2.1537626E-1,3.478443E-1,2.4570024E-1,-3.3310407E-1,3.5244885E-1,1.1977844E-1,-1.404584E-1,2.1770787E-1,-2.5443304E-1,2.3986976E-1,-3.3943257E-1,-8.601615E-2,2.6971537E-1,-2.033637E-1,-3.154946E-1,3.0028132E-1,1.2999384E-2,2.0143786E-1,-3.3197045E-1,2.8430533E-1,3.4216195E-1,1.0725817E-1,-3.306982E-1,1.7479105E-1],"split_indices":[12,26,26,12,26,26,12,26,26,12,26,26,12,26,26,12,26,26,12,12,12,12,0,0,12,26,12,12,33,12,12,26,26,12,26,0,12,12,0,0,26,26,17,0,0,0,0,12,0,26,0,0,0,26,0,26,0,12,26,0,0,0,0,0,0,0,0,0,0,0,0,0,0,0,0,0,0,0,0,0,0,0,0,0,0,0,0,0,0],"split_type":[0,0,0,0,0,0,0,0,0,0,0,0,0,0,0,0,0,0,0,0,0,0,0,0,0,0,0,0,0,0,0,0,0,0,0,0,0,0,0,0,0,0,0,0,0,0,0,0,0,0,0,0,0,0,0,0,0,0,0,0,0,0,0,0,0,0,0,0,0,0,0,0,0,0,0,0,0,0,0,0,0,0,0,0,0,0,0,0,0],"sum_hessian":[2.3866624E3,1.202864E3,1.1837983E3,4.4476956E2,7.580944E2,7.646576E2,4.191408E2,1.7693524E2,2.678343E2,1.296785E2,6.284159E2,6.012978E2,1.633598E2,2.3841074E2,1.8073006E2,5.8956715E1,1.1797853E2,2.0529486E2,6.2539433E1,9.288237E1,3.679612E1,7.555393E1,5.52862E2,5.551176E2,4.618018E1,3.6703655E1,1.2665616E2,4.1209606E1,1.9720114E2,9.763777E1,8.309229E1,1.2330898E1,4.6625816E1,3.1232758E1,8.674577E1,1.8460838E2,2.068648E1,1.8299679E1,4.4239758E1,9.036037E1,2.5220084E0,4.228048E0,3.2568073E1,6.9221085E1,6.332843E0,3.6109354E0,4.2569244E1,4.481408E0,3.2222244E1,1.2853549E1,1.13802605E2,3.1549242E1,9.660361E0,2.4073617E0,1.9479378E2,2.304691E1,7.459086E1,4.147181E1,4.1620487E1,1.7620544E0,1.0568844E1,3.0625515E1,1.6000301E1,2.004277E1,1.1189987E1,6.4703526E0,8.027542E1,1.9720614E0,1.8714418E1,1.6015652E1,2.2840254E0,1.115413E0,1.4065955E0,2.3181174E0,1.9099303E0,3.1475246E1,1.092826E0,3.1514282E0,1.3299799E0,8.22868E0,4.62487E0,1.0581456E0,1.3492161E0,1.6387665E1,6.6592445E0,3.857043E1,2.9013796E0,2.2156107E1,1.946438E1],"tree_param":{"num_deleted":"0","num_feature":"38","num_nodes":"89","size_leaf_vector":"1"}},{"base_weights":[-5.2636406E-5,4.7187594E-1,-4.7997093E-1,-3.2490975E-1,1.026891E0,-9.821674E-1,4.1286376E-1,3.660176E-1,-9.670024E-1,6.089258E-1,1.0958776E0,-1.0969594E0,-5.5775434E-1,9.972467E-1,-3.274415E-1,-4.230526E-1,9.361861E-1,-5.324151E-1,-3.271726E-1,1.066148E0,-3.1877372E-1,9.319081E-1,3.3356324E-1,-3.3338794E-1,-9.01059E-1,9.9352086E-1,-1.0181198E0,1.0955873E0,5.768246E-1,-8.962476E-1,4.0269634E-1,3.6497545E-1,-1.0552036E0,4.6213058E-1,3.291186E-1,-1.0661438E0,3.0955112E-1,3.29803E-1,2.0122048E-1,3.2753125E-1,-2.6966238E-1,2.6273257E-1,-3.2480922E-1,3.438406E-1,3.2221338E-1,-2.6663166E-1,-3.307317E-1,1.04976594E-1,3.29855E-1,-3.0659E-1,1.0494343E0,-4.068409E-1,-1.069121E0,9.24817E-1,-4.554256E-1,-1.3238735E-1,3.6645424E-1,-1.0789933E-1,-3.298809E-1,3.1866264E-1,-3.4165475E-1,-3.2636186E-1,-7.161716E-2,-1.7582725E-1,2.2511634E-1,2.4700145E-1,-1.8511346E-1,-2.9421577E-1,2.755525E-1,7.253342E-2,3.250712E-1,-2.947176E-1,3.138105E-1,-3.2951167E-1,-1.7487422E-1,3.5694078E-2,3.1852153E-1,-3.37641E-1,4.4691477E-2],"categories":[],"categories_nodes":[],"categories_segments":[],"categories_sizes":[],"default_left":[0,0,0,0,0,0,0,0,0,0,0,0,0,0,0,0,0,0,0,0,0,0,0,0,0,0,0,0,0,0,0,0,0,0,0,0,0,0,0,0,0,0,0,0,0,0,0,0,0,0,0,0,0,0,0,0,0,0,0,0,0,0,0,0,0,0,0,0,0,0,0,0,0,0,0,0,0,0,0],"id":5,"left_children":[1,3,5,7,9,11,13,15,17,19,21,23,25,27,29,31,33,35,-1,37,-1,39,-1,-1,41,43,45,47,49,51,53,55,57,59,-1,61,-1,-1,63,-1,-1,-1,-1,65,-1,67,-1,-1,-1,-1,69,71,73,75,77,-1,-1,-1,-1,-1,-1,-1,-1,-1,-1,-1,-1,-1,-1,-1,-1,-1,-1,-1,-1,-1,-1,-1,-1],"loss_changes":[4.2050946E2,4.1431305E2,4.1315454E2,1.712028E2,1.5249451E1,2.8105652E1,1.4399489E2,8.4179245E1,1.0153702E1,6.2620224E1,2.0355225E-1,2.9852295E-1,9.208246E1,7.0513E0,6.1515884E1,3.964242E1,7.7615204E0,3.967726E1,0E0,1.6069412E0,0E0,1.5085354E1,0E0,0E0,1.2840666E1,1.1839142E0,5.9685974E0,5.328369E-2,2.928693E1,6.594116E0,2.9620914E1,2.5277027E1,9.628296E-1,2.9261173E1,0E0,3.6854935E-1,0E0,0E0,1.9865626E0,0E0,0E0,0E0,0E0,2.6942344E0,0E0,1.0455147E1,0E0,0E0,0E0,0E0,5.462189E-1,2.0511753E1,2.241745E-1,4.3807297E0,1.0422913E1,0E0,0E0,0E0,0E0,0E0,0E0,0E0,0E0,0E0,0E0,0E0,0E0,0E0,0E0,0E0,0E0,0E0,0E0,0E0,0E0,0E0,0E0,0E0,0E0],"parents":[2147483647,0,0,1,1,2,2,3,3,4,4,5,5,6,6,7,7,8,8,9,9,10,10,11,11,12,12,13,13,14,14,15,15,16,16,17,17,19,19,21,21,24,24,25,25,26,26,27,27,28,28,29,29,30,30,31,31,32,32,33,33,35,35,38,38,43,43,45,45,50,50,51,51,52,52,53,53,54,54],"right_children":[2,4,6,8,10,12,14,16,18,20,22,24,26,28,30,32,34,36,-1,38,-1,40,-1,-1,42,44,46,48,50,52,54,56,58,60,-1,62,-1,-1,64,-1,-1,-1,-1,66,-1,68,-1,-1,-1,-1,70,72,74,76,78,-1,-1,-1,-1,-1,-1,-1,-1,-1,-1,-1,-1,-1,-1,-1,-1,-1,-1,-1,-1,-1,-1,-1,-1],"split_conditions":[1.124E2,1.071E2,1.19E2,1.025E2,1.098E2,1.146E2,1.232E2,9.8E1,1.049E2,1.088E2,1.114E2,1.134E2,1.161E2,1.206E2,1.28E2,9.54E1,1.007E2,1.037E2,-3.271726E-1,1.081E2,-3.1877372E-1,1.104E2,3.3356324E-1,-3.3338794E-1,1.136E2,1.151E2,1.18E2,1.191E2,1.217E2,1.26E2,1.324E2,9.29E1,9.61E1,9.96E1,3.291186E-1,1.032E2,3.0955112E-1,3.29803E-1,1.079E2,3.2753125E-1,-2.6966238E-1,2.6273257E-1,-3.2480922E-1,1.141E2,3.2221338E-1,1.172E2,-3.307317E-1,1.04976594E-1,3.29855E-1,-3.0659E-1,1.222E2,1.248E2,1.272E2,1.292E2,1.341E2,-1.3238735E-1,3.6645424E-1,-1.0789933E-1,-3.298809E-1,3.1866264E-1,-3.4165475E-1,-3.2636186E-1,-7.161716E-2,-1.7582725E-1,2.2511634E-1,2.4700145E-1,-1.8511346E-1,-2.9421577E-1,2.755525E-1,7.253342E-2,3.250712E-1,-2.947176E-1,3.138105E-1,-3.2951167E-1,-1.7487422E-1,3.5694078E-2,3.1852153E-1,-3.37641E-1,4.4691477E-2],"split_indices":[12,26,26,12,26,26,12,26,12,12,26,26,12,12,26,12,26,26,0,12,0,12,0,0,12,26,12,26,26,12,12,26,12,12,0,26,0,0,26,0,0,0,0,12,0,26,0,0,0,0,26,26,26,26,26,0,0,0,0,0,0,0,0,0,0,0,0,0,0,0,0,0,0,0,0,0,0,0,0],"split_type":[0,0,0,0,0,0,0,0,0,0,0,0,0,0,0,0,0,0,0,0,0,0,0,0,0,0,0,0,0,0,0,0,0,0,0,0,0,0,0,0,0,0,0,0,0,0,0,0,0,0,0,0,0,0,0,0,0,0,0,0,0,0,0,0,0,0,0,0,0,0,0,0,0,0,0,0,0,0,0],"sum_hessian":[1.8546592E3,9.3512195E2,9.195372E2,3.8410754E2,5.510144E2,5.8844946E2,3.310877E2,1.8522505E2,1.9888248E2,7.94546E1,4.715598E2,4.6192654E2,1.2652292E2,1.8483522E2,1.4625249E2,7.780576E1,1.074193E2,4.520651E1,1.5367596E2,6.2673187E1,1.6781412E1,4.7190113E1,4.2436972E2,4.2607828E2,3.584828E1,2.8689829E1,9.783309E1,1.4849498E2,3.634024E1,8.20808E1,6.4171684E1,3.4821075E1,4.2984688E1,2.8198603E1,7.922069E1,3.3943344E1,1.1263164E1,6.0095734E1,2.5774522E0,4.377166E1,3.4184532E0,2.9703193E0,3.2877964E1,3.744948E0,2.494488E1,1.0289637E1,8.754346E1,1.2504671E0,1.472445E2,8.026159E0,2.8314083E1,2.2300688E1,5.9780117E1,3.984838E1,2.43233E1,1.8186644E1,1.6634432E1,3.125339E0,3.985935E1,2.0755548E1,7.4430556E0,3.276804E1,1.1753051E0,1.0314635E0,1.5459886E0,2.5937638E0,1.1511841E0,6.5284867E0,3.7611504E0,1.4759607E0,2.6838121E1,1.6204979E1,6.09571E0,5.52001E1,4.5800157E0,6.058815E0,3.3789566E1,1.1126333E1,1.3196967E1],"tree_param":{"num_deleted":"0","num_feature":"38","num_nodes":"79","size_leaf_vector":"1"}},{"base_weights":[-4.1275238E-5,4.248641E-1,-4.8701116E-1,-3.1094062E-1,9.8132366E-1,-9.6642476E-1,3.8929877E-1,3.2424197E-1,-9.570689E-1,6.7538273E-1,3.2336146E-1,-1.0559862E0,-5.1977533E-1,9.119144E-1,-3.702663E-1,-2.2525515E-1,1.0315763E0,-3.1831357E-1,-5.1215166E-1,1.0292904E0,-8.373616E-1,-3.2267433E-1,-8.179145E-1,8.587568E-1,-3.2028523E-1,1.0496119E0,4.3376276E-1,-8.5921794E-1,3.7532905E-1,3.1774768E-1,-9.657737E-1,3.125199E-1,8.4763154E-2,8.7118614E-1,-3.1360182E-1,3.2100025E-1,2.6696172E-1,-3.063879E-1,-2.2895715E-1,2.5348985E-1,-3.14212E-1,3.0760115E-1,1.6212028E-1,6.90677E-1,3.2231885E-1,-9.52917E-1,3.1151175E-1,-2.2973035E-1,-1.0415117E0,9.133696E-1,-6.040237E-1,-1.4177339E-1,2.5755006E-1,-3.2108504E-1,-1.2816085E-1,2.969756E-1,1.6069321E-2,-2.0515601E-1,2.4564132E-1,2.2448216E-1,-2.6590684E-1,-2.1427128E-1,2.4132566E-1,2.8713304E-1,-1.8846743E-1,-3.060941E-1,-7.5271815E-2,-2.9487953E-1,2.9741812E-1,-1.7323928E-1,-3.2730144E-1,5.8458302E-2,3.1905276E-1,-3.007603E-1,1.6970798E-1],"categories":[],"categories_nodes":[],"categories_segments":[],"categories_sizes":[],"default_left":[0,0,0,0,0,0,0,0,0,0,0,0,0,0,0,0,0,0,0,0,0,0,0,0,0,0,0,0,0,0,0,0,0,0,0,0,0,0,0,0,0,0,0,0,0,0,0,0,0,0,0,0,0,0,0,0,0,0,0,0,0,0,0,0,0,0,0,0,0,0,0,0,0,0,0],"id":6,"left_children":[1,3,5,7,9,11,13,15,17,19,-1,21,23,25,27,29,31,-1,33,35,37,-1,39,41,-1,43,45,47,49,51,53,-1,-1,55,-1,-1,57,-1,59,-1,-1,-1,61,63,-1,65,-1,67,69,71,73,-1,-1,-1,-1,-1,-1,-1,-1,-1,-1,-1,-1,-1,-1,-1,-1,-1,-1,-1,-1,-1,-1,-1,-1],"loss_changes":[2.967425E2,3.1388498E2,2.8112003E2,1.3596992E2,1.2160004E1,1.6741547E1,9.442622E1,6.530963E1,7.0486603E0,5.8329033E1,0E0,7.953186E-1,5.69265E1,8.808533E0,3.580197E1,3.852694E1,2.639389E-1,0E0,2.5266354E1,2.427971E0,2.1052704E0,0E0,1.289682E1,2.3456583E0,0E0,2.234726E-1,2.87939E1,6.5403214E0,2.1228931E1,2.4163671E1,1.8200569E0,0E0,0E0,8.917489E-1,0E0,0E0,3.584912E0,0E0,4.608574E0,0E0,0E0,0E0,3.5943592E0,4.0486226E0,0E0,2.4508286E-1,0E0,1.4356979E1,4.1568756E-1,2.5678654E0,7.3336954E0,0E0,0E0,0E0,0E0,0E0,0E0,0E0,0E0,0E0,0E0,0E0,0E0,0E0,0E0,0E0,0E0,0E0,0E0,0E0,0E0,0E0,0E0,0E0,0E0],"parents":[2147483647,0,0,1,1,2,2,3,3,4,4,5,5,6,6,7,7,8,8,9,9,11,11,12,12,13,13,14,14,15,15,16,16,18,18,19,19,20,20,22,22,23,23,25,25,26,26,27,27,28,28,29,29,30,30,33,33,36,36,38,38,42,42,43,43,45,45,47,47,48,48,49,49,50,50],"right_children":[2,4,6,8,10,12,14,16,18,20,-1,22,24,26,28,30,32,-1,34,36,38,-1,40,42,-1,44,46,48,50,52,54,-1,-1,56,-1,-1,58,-1,60,-1,-1,-1,62,64,-1,66,-1,68,70,72,74,-1,-1,-1,-1,-1,-1,-1,-1,-1,-1,-1,-1,-1,-1,-1,-1,-1,-1,-1,-1,-1,-1,-1,-1],"split_conditions":[1.133E2,1.077E2,1.197E2,1.033E2,1.121E2,1.16E2,1.248E2,1.007E2,1.051E2,1.098E2,3.2336146E-1,1.146E2,1.186E2,1.217E2,1.299E2,9.8E1,2.17E1,-3.1831357E-1,1.069E2,1.088E2,1.109E2,-3.2267433E-1,1.151E2,1.173E2,-3.2028523E-1,1.206E2,1.234E2,1.269E2,1.349E2,9.29E1,9.91E1,3.125199E-1,8.4763154E-2,1.06E2,-3.1360182E-1,3.2100025E-1,1.088E2,-3.063879E-1,1.112E2,2.5348985E-1,-3.14212E-1,3.0760115E-1,1.177E2,1.196E2,3.2231885E-1,6.5E-1,3.1151175E-1,1.26E2,1.28E2,1.315E2,1.41E2,-1.4177339E-1,2.5755006E-1,-3.2108504E-1,-1.2816085E-1,2.969756E-1,1.6069321E-2,-2.0515601E-1,2.4564132E-1,2.2448216E-1,-2.6590684E-1,-2.1427128E-1,2.4132566E-1,2.8713304E-1,-1.8846743E-1,-3.060941E-1,-7.5271815E-2,-2.9487953E-1,2.9741812E-1,-1.7323928E-1,-3.2730144E-1,5.8458302E-2,3.1905276E-1,-3.007603E-1,1.6970798E-1],"split_indices":[12,26,26,12,26,26,12,26,26,12,0,26,12,12,26,12,7,0,12,12,26,0,12,12,0,26,26,12,12,26,26,0,0,12,0,0,26,0,12,0,0,0,26,12,0,33,0,26,12,26,26,0,0,0,0,0,0,0,0,0,0,0,0,0,0,0,0,0,0,0,0,0,0,0,0],"split_type":[0,0,0,0,0,0,0,0,0,0,0,0,0,0,0,0,0,0,0,0,0,0,0,0,0,0,0,0,0,0,0,0,0,0,0,0,0,0,0,0,0,0,0,0,0,0,0,0,0,0,0,0,0,0,0,0,0,0,0,0,0,0,0,0,0,0,0,0,0,0,0,0,0,0,0],"sum_hessian":[1.4321196E3,7.648647E2,6.672549E2,3.2954697E2,4.3531775E2,4.3123245E2,2.3602246E2,1.6643228E2,1.6311467E2,1.0634062E2,3.289771E2,3.5806885E2,7.31636E1,1.3970111E2,9.632135E1,9.405028E1,7.238201E1,1.3109355E2,3.202112E1,8.643798E1,1.9902643E1,3.2758823E2,3.048061E1,2.0645617E1,5.251798E1,1.07537445E2,3.2163654E1,5.8080517E1,3.8240837E1,5.4591022E1,3.9459255E1,7.102811E1,1.3539039E0,8.732086E0,2.328903E1,8.167284E1,4.765138E0,1.4761378E1,5.1412654E0,3.370715E0,2.7109896E1,1.6280718E1,4.364899E0,8.810335E0,9.872711E1,9.590848E0,2.2572807E1,1.3550122E1,4.453039E1,2.4724804E1,1.3516033E1,2.22289E1,3.236212E1,3.2219746E1,7.2395067E0,7.4408236E0,1.2912632E0,1.662119E0,3.1030192E0,2.0120687E0,3.1291966E0,1.7987145E0,2.5661845E0,7.5578723E0,1.2524631E0,8.337034E0,1.2538131E0,8.501422E0,5.048701E0,5.51252E0,3.901787E1,4.670671E0,2.0054132E1,1.0188009E1,3.328024E0],"tree_param":{"num_deleted":"0","num_feature":"38","num_nodes":"75","size_leaf_vector":"1"}},{"base_weights":[-1.769125E-4,4.3003798E-1,-4.417095E-1,-3.369581E-1,9.3192333E-1,-9.3647724E-1,3.4716702E-1,3.326571E-1,-8.837616E-1,4.6013582E-1,1.031746E0,-3.1354636E-1,-5.4942304E-1,9.512923E-1,-2.657986E-1,-2.9477313E-1,8.9016974E-1,-3.0945358E-1,-4.0090802E-1,1.0116248E0,-8.6415356E-1,8.399452E-1,3.1658372E-1,8.939457E-1,-9.7825694E-1,4.7769296E-1,3.0940205E-1,-9.2132723E-1,2.430627E-1,3.125816E-1,-9.612406E-1,3.0872634E-1,3.8867936E-1,9.359857E-1,-2.9739332E-1,3.1120595E-1,4.2999834E-2,-1.4158699E-1,-2.9886755E-1,3.053754E-1,-2.4467926E-1,2.9919845E-1,2.257171E-1,-3.428458E-1,-3.1220642E-1,2.9548642E-1,-2.771564E-1,-4.9666294E-1,-3.10198E-1,9.839428E-1,-2.711586E-1,-1.24217175E-1,2.786965E-1,-3.1617033E-1,-1.2944025E-1,-2.8766942E-1,2.9926956E-1,6.698409E-2,2.9750177E-1,-2.0988753E-1,1.88841E-1,-1.0760301E-1,1.9254455E-1,-2.568666E-1,2.1094425E-1,-2.876551E-1,2.4317856E-1,1.01370454E-1,3.0720645E-1,-2.8250936E-1,9.0424776E-2],"categories":[],"categories_nodes":[],"categories_segments":[],"categories_sizes":[],"default_left":[0,0,0,0,0,0,0,0,0,0,0,0,0,0,0,0,0,0,0,0,0,0,0,0,0,0,0,0,0,0,0,0,0,0,0,0,0,0,0,0,0,0,0,0,0,0,0,0,0,0,0,0,0,0,0,0,0,0,0,0,0,0,0,0,0,0,0,0,0,0,0],"id":7,"left_children":[1,3,5,7,9,11,13,15,17,19,21,-1,23,25,27,29,31,-1,33,35,37,39,-1,41,43,45,-1,47,49,51,53,-1,55,57,-1,-1,-1,59,-1,-1,-1,-1,61,63,-1,-1,-1,65,-1,67,69,-1,-1,-1,-1,-1,-1,-1,-1,-1,-1,-1,-1,-1,-1,-1,-1,-1,-1,-1,-1],"loss_changes":[2.1021222E2,2.1607834E2,2.1348956E2,8.1737854E1,1.5493988E1,1.3555328E1,7.847444E1,3.549254E1,8.341461E0,4.5438164E1,3.7316895E-1,0E0,4.7759766E1,3.5487137E0,3.545974E1,1.9785625E1,3.3325577E0,0E0,2.491396E1,8.239784E-1,1.622426E0,1.1259785E1,0E0,1.0095949E0,1.9787369E0,1.3192142E1,0E0,1.7051201E0,2.3224306E1,1.2003416E1,6.840019E-1,0E0,1.1811263E1,1.6846085E-1,0E0,0E0,0E0,2.1706967E0,0E0,0E0,0E0,0E0,1.126795E0,4.231245E0,0E0,0E0,0E0,7.814594E0,0E0,2.9882812E-1,1.4241723E1,0E0,0E0,0E0,0E0,0E0,0E0,0E0,0E0,0E0,0E0,0E0,0E0,0E0,0E0,0E0,0E0,0E0,0E0,0E0,0E0],"parents":[2147483647,0,0,1,1,2,2,3,3,4,4,5,5,6,6,7,7,8,8,9,9,10,10,12,12,13,13,14,14,15,15,16,16,18,18,19,19,20,20,21,21,23,23,24,24,25,25,27,27,28,28,29,29,30,30,32,32,33,33,37,37,42,42,43,43,47,47,49,49,50,50],"right_children":[2,4,6,8,10,12,14,16,18,20,22,-1,24,26,28,30,32,-1,34,36,38,40,-1,42,44,46,-1,48,50,52,54,-1,56,58,-1,-1,-1,60,-1,-1,-1,-1,62,64,-1,-1,-1,66,-1,68,70,-1,-1,-1,-1,-1,-1,-1,-1,-1,-1,-1,-1,-1,-1,-1,-1,-1,-1,-1,-1],"split_conditions":[1.124E2,1.06E2,1.187E2,1.011E2,1.094E2,1.143E2,1.225E2,9.72E1,1.035E2,1.076E2,1.114E2,-3.1354636E-1,1.16E2,1.204E2,1.26E2,9.47E1,9.91E1,-3.0945358E-1,1.048E2,1.072E2,1.086E2,1.104E2,3.1658372E-1,1.153E2,1.177E2,1.193E2,3.0940205E-1,1.248E2,1.286E2,9.15E1,9.57E1,3.0872634E-1,1.002E2,1.038E2,-2.9739332E-1,3.1120595E-1,4.2999834E-2,1.076E2,-2.9886755E-1,3.053754E-1,-2.4467926E-1,2.9919845E-1,1.164E2,1.167E2,-3.1220642E-1,2.9548642E-1,-2.771564E-1,1.236E2,-3.10198E-1,1.267E2,1.324E2,-1.24217175E-1,2.786965E-1,-3.1617033E-1,-1.2944025E-1,-2.8766942E-1,2.9926956E-1,6.698409E-2,2.9750177E-1,-2.0988753E-1,1.88841E-1,-1.0760301E-1,1.9254455E-1,-2.568666E-1,2.1094425E-1,-2.876551E-1,2.4317856E-1,1.01370454E-1,3.0720645E-1,-2.8250936E-1,9.0424776E-2],"split_indices":[12,26,26,12,26,26,12,26,26,12,26,0,12,26,26,12,12,0,12,12,12,12,0,12,12,12,0,12,12,26,26,0,26,26,0,0,0,26,0,0,0,0,26,26,0,0,0,26,0,26,26,0,0,0,0,0,0,0,0,0,0,0,0,0,0,0,0,0,0,0,0],"split_type":[0,0,0,0,0,0,0,0,0,0,0,0,0,0,0,0,0,0,0,0,0,0,0,0,0,0,0,0,0,0,0,0,0,0,0,0,0,0,0,0,0,0,0,0,0,0,0,0,0,0,0,0,0,0,0,0,0,0,0,0,0,0,0,0,0,0,0,0,0,0,0],"sum_hessian":[1.1046487E3,5.595082E2,5.4514044E2,2.2143431E2,3.3807388E2,3.3490656E2,2.1023387E2,9.971501E1,1.217193E2,6.0018856E1,2.7805502E2,2.6015878E2,7.474777E1,1.0560248E2,1.0463139E2,4.7137394E1,5.2577618E1,9.233045E1,2.9388851E1,4.2539673E1,1.7479183E1,3.4397476E1,2.4365755E2,1.6872784E1,5.787499E1,1.6275703E1,8.9326775E1,4.5371742E1,5.925965E1,2.4940235E1,2.2197159E1,4.034858E1,1.2229038E1,8.823594E0,2.0565258E1,4.1126354E1,1.4133165E0,3.0213516E0,1.4457832E1,3.1406395E1,2.9910808E0,1.4185614E1,2.6871693E0,5.758428E0,5.211656E1,1.2168719E1,4.1069837E0,1.06474285E1,3.4724316E1,2.3904726E1,3.5354927E1,1.1597281E1,1.3342954E1,1.8050648E1,4.1465116E0,3.6269915E0,8.602047E0,1.002516E0,7.821078E0,1.806542E0,1.2148095E0,1.1749693E0,1.5122001E0,3.9843338E0,1.7740945E0,8.063173E0,2.5842552E0,1.947256E0,2.195747E1,1.598744E1,1.9367487E1],"tree_param":{"num_deleted":"0","num_feature":"38","num_nodes":"71","size_leaf_vector":"1"}},{"base_weights":[9.7352175E-5,3.8572493E-1,-4.571732E-1,-2.8110754E-1,9.3117476E-1,-9.2669106E-1,3.3736783E-1,2.7050528E-1,-9.0450126E-1,6.099257E-1,3.1107828E-1,-1.0173619E0,-4.954011E-1,8.9258975E-1,-2.5101024E-1,-1.824975E-1,9.5905685E-1,-3.0459023E-1,-4.9734786E-1,9.796147E-1,-7.840616E-1,-3.1089383E-1,-7.7672404E-1,7.8784996E-1,-3.0207378E-1,1.0040152E0,4.3539652E-1,-7.5167346E-1,2.900524E-1,3.9154023E-1,-7.200985E-1,3.062443E-1,5.563574E-1,7.723005E-1,-2.9664832E-1,3.0645326E-1,2.2250098E-1,-2.2870193E-1,-2.8804123E-1,2.0794772E-1,-2.9548687E-1,2.8450987E-1,1.7878735E-1,5.389689E-1,3.0802855E-1,-2.540762E-1,2.9081908E-1,-2.3765326E-1,-3.0237192E-1,6.697908E-1,-8.2534826E-1,-5.7820197E-2,2.898781E-1,-3.1019264E-1,-7.475638E-2,-2.0022237E-1,2.7466002E-1,2.7111185E-1,3.2817738E-3,-1.645163E-1,2.073713E-1,-2.2605968E-1,1.8546724E-1,-1.7251486E-1,2.0783938E-1,2.3010132E-1,-3.266272E-2,-2.737178E-1,2.3686038E-1,2.9831192E-1,5.5571657E-2,-4.164005E-1,9.934347E-2],"categories":[],"categories_nodes":[],"categories_segments":[],"categories_sizes":[],"default_left":[0,0,0,0,0,0,0,0,0,0,0,0,0,0,0,0,0,0,0,0,0,0,0,0,0,0,0,0,0,0,0,0,0,0,0,0,0,0,0,0,0,0,0,0,0,0,0,0,0,0,0,0,0,0,0,0,0,0,0,0,0,0,0,0,0,0,0,0,0,0,0,0,0],"id":8,"left_children":[1,3,5,7,9,11,13,15,17,19,-1,21,23,25,27,29,31,-1,33,35,37,-1,39,41,-1,43,45,47,49,51,53,-1,55,57,-1,-1,59,61,-1,-1,-1,-1,63,65,-1,-1,-1,67,-1,69,71,-1,-1,-1,-1,-1,-1,-1,-1,-1,-1,-1,-1,-1,-1,-1,-1,-1,-1,-1,-1,-1,-1],"loss_changes":[1.5045158E2,1.686164E2,1.4593132E2,7.212337E1,8.025116E0,9.101196E0,4.7828423E1,3.5006115E1,3.9322586E0,3.45447E1,0E0,1.1627197E-1,3.0079689E1,3.3933983E0,1.9594486E1,2.1327173E1,5.3809357E-1,0E0,1.5116475E1,1.4300385E0,1.1781511E0,0E0,6.4183874E0,1.1284561E0,0E0,7.804108E-2,1.2119736E1,4.6903114E0,1.5419359E1,1.1478213E1,4.9994926E0,0E0,4.176345E0,6.8848324E-1,0E0,0E0,1.830987E0,2.57879E0,0E0,0E0,0E0,0E0,1.9489253E0,8.0569017E-1,0E0,0E0,0E0,1.0257185E1,0E0,4.0208397E0,6.551847E0,0E0,0E0,0E0,0E0,0E0,0E0,0E0,0E0,0E0,0E0,0E0,0E0,0E0,0E0,0E0,0E0,0E0,0E0,0E0,0E0,0E0,0E0],"parents":[2147483647,0,0,1,1,2,2,3,3,4,4,5,5,6,6,7,7,8,8,9,9,11,11,12,12,13,13,14,14,15,15,16,16,18,18,19,19,20,20,22,22,23,23,25,25,26,26,27,27,28,28,29,29,30,30,32,32,33,33,36,36,37,37,42,42,43,43,47,47,49,49,50,50],"right_children":[2,4,6,8,10,12,14,16,18,20,-1,22,24,26,28,30,32,-1,34,36,38,-1,40,42,-1,44,46,48,50,52,54,-1,56,58,-1,-1,60,62,-1,-1,-1,-1,64,66,-1,-1,-1,68,-1,70,72,-1,-1,-1,-1,-1,-1,-1,-1,-1,-1,-1,-1,-1,-1,-1,-1,-1,-1,-1,-1,-1,-1],"split_conditions":[1.135E2,1.077E2,1.198E2,1.033E2,1.122E2,1.16E2,1.24E2,1.007E2,1.049E2,1.098E2,3.1107828E-1,1.146E2,1.186E2,1.215E2,1.292E2,9.57E1,1.018E2,-3.0459023E-1,1.069E2,1.088E2,1.112E2,-3.1089383E-1,1.151E2,1.173E2,-3.0207378E-1,1.204E2,1.228E2,1.272E2,1.375E2,9.29E1,9.67E1,3.062443E-1,1.025E2,1.06E2,-2.9664832E-1,3.0645326E-1,1.088E2,1.103E2,-2.8804123E-1,2.0794772E-1,-2.9548687E-1,2.8450987E-1,1.177E2,1.18E2,3.0802855E-1,-2.540762E-1,2.9081908E-1,1.252E2,-3.0237192E-1,1.315E2,1.41E2,-5.7820197E-2,2.898781E-1,-3.1019264E-1,-7.475638E-2,-2.0022237E-1,2.7466002E-1,2.7111185E-1,3.2817738E-3,-1.645163E-1,2.073713E-1,-2.2605968E-1,1.8546724E-1,-1.7251486E-1,2.0783938E-1,2.3010132E-1,-3.266272E-2,-2.737178E-1,2.3686038E-1,2.9831192E-1,5.5571657E-2,-4.164005E-1,9.934347E-2],"split_indices":[12,26,26,12,26,26,12,26,26,12,0,26,12,12,26,12,12,0,12,12,12,0,12,12,0,26,26,12,12,26,26,0,26,12,0,0,26,26,0,0,0,0,26,12,0,0,0,26,0,12,26,0,0,0,0,0,0,0,0,0,0,0,0,0,0,0,0,0,0,0,0,0,0],"split_type":[0,0,0,0,0,0,0,0,0,0,0,0,0,0,0,0,0,0,0,0,0,0,0,0,0,0,0,0,0,0,0,0,0,0,0,0,0,0,0,0,0,0,0,0,0,0,0,0,0,0,0,0,0,0,0,0,0,0,0,0,0,0,0,0,0,0,0,0,0,0,0,0,0],"sum_hessian":[8.512091E2,4.6186414E2,3.89345E2,2.080275E2,2.5383662E2,2.4462343E2,1.4472156E2,1.1066825E2,9.7359245E1,6.4542175E1,1.8929445E2,2.0100658E2,4.361685E1,7.419271E1,7.052885E1,6.719509E1,4.3473156E1,7.53582E1,2.2001045E1,5.1248264E1,1.3293913E1,1.832673E2,1.7739275E1,1.2276934E1,3.1339918E1,5.869238E1,1.5500332E1,3.6429848E1,3.4099003E1,3.2627697E1,3.4567398E1,3.6361828E1,7.111327E0,5.980399E0,1.6020647E1,4.823015E1,3.0181153E0,3.7535973E0,9.540316E0,1.9122404E0,1.5827035E1,9.275355E0,3.0015788E0,3.8884768E0,5.4803905E1,4.3848405E0,1.1115491E1,1.2759976E1,2.366987E1,2.573651E1,8.3624935E0,1.650895E1,1.6118746E1,2.0024641E1,1.4542757E1,1.418869E0,5.692458E0,4.9407067E0,1.0396925E0,1.076979E0,1.9411362E0,2.3855646E0,1.3680328E0,1.1687559E0,1.8328228E0,2.7400663E0,1.1484107E0,7.7686567E0,4.99132E0,1.4782288E1,1.0954221E1,5.490898E0,2.8715951E0],"tree_param":{"num_deleted":"0","num_feature":"38","num_nodes":"73","size_leaf_vector":"1"}},{"base_weights":[4.772815E-4,3.671227E-1,-4.416507E-1,-2.375084E-1,9.336689E-1,-9.182599E-1,3.0661246E-1,2.3073813E-1,-9.096573E-1,6.197293E-1,3.0659577E-1,-3.0265707E-1,-5.027093E-1,8.600403E-1,-2.3412389E-1,-1.9178785E-1,9.1590023E-1,-3.0448848E-1,-5.147722E-1,9.764558E-1,-7.5597906E-1,6.7559457E-1,-2.9897162E-1,3.0241707E-1,4.623023E-1,-9.3293744E-1,1.1194972E-1,1.942184E-1,-9.0907013E-1,3.014959E-1,4.5501274E-1,2.180168E-1,-2.8114054E-1,3.011331E-1,5.8861274E-2,-1.520836E-1,-2.7186993E-1,2.7099562E-1,9.0382844E-2,-5.9460545E-1,2.8691524E-1,-3.5940316E-1,-2.9381236E-1,8.2050043E-1,-2.2998063E-1,-4.562611E-2,2.7419528E-1,-2.9678E-1,-7.918616E-2,-2.097366E-1,2.7232167E-1,-1.6521752E-1,9.739877E-2,-1.8449204E-1,2.0293546E-1,6.3539553E-3,-2.5211605E-1,-1.6155931E-1,1.3138965E-3,4.2432986E-2,2.7978548E-1,-2.648843E-1,8.281107E-2],"categories":[],"categories_nodes":[],"categories_segments":[],"categories_sizes":[],"default_left":[0,0,0,0,0,0,0,0,0,0,0,0,0,0,0,0,0,0,0,0,0,0,0,0,0,0,0,0,0,0,0,0,0,0,0,0,0,0,0,0,0,0,0,0,0,0,0,0,0,0,0,0,0,0,0,0,0,0,0,0,0,0,0],"id":9,"left_children":[1,3,5,7,9,11,13,15,17,19,-1,-1,21,23,25,27,29,-1,31,33,35,37,-1,-1,39,41,43,45,47,-1,49,-1,-1,-1,-1,51,-1,-1,53,55,-1,57,-1,59,61,-1,-1,-1,-1,-1,-1,-1,-1,-1,-1,-1,-1,-1,-1,-1,-1,-1,-1],"loss_changes":[1.0691258E2,1.2372564E2,1.0690962E2,5.5352615E1,4.5330353E0,6.3785706E0,3.524122E1,3.030202E1,2.4774055E0,2.206198E1,0E0,0E0,2.0883953E1,2.9532127E0,1.461721E1,1.822765E1,1.1796455E0,0E0,9.709005E0,5.4790115E-1,7.251568E-1,1.3647723E0,0E0,0E0,9.758882E0,1.8021774E-1,1.0128481E1,1.0909411E1,9.280834E-1,0E0,4.9637337E0,0E0,0E0,0E0,0E0,7.6730007E-1,0E0,0E0,2.1321902E0,9.5963645E-1,0E0,2.028316E-1,0E0,9.014683E-1,9.645201E0,0E0,0E0,0E0,0E0,0E0,0E0,0E0,0E0,0E0,0E0,0E0,0E0,0E0,0E0,0E0,0E0,0E0,0E0],"parents":[2147483647,0,0,1,1,2,2,3,3,4,4,5,5,6,6,7,7,8,8,9,9,12,12,13,13,14,14,15,15,16,16,18,18,19,19,20,20,21,21,24,24,25,25,26,26,27,27,28,28,30,30,35,35,38,38,39,39,41,41,43,43,44,44],"right_children":[2,4,6,8,10,12,14,16,18,20,-1,-1,22,24,26,28,30,-1,32,34,36,38,-1,-1,40,42,44,46,48,-1,50,-1,-1,-1,-1,52,-1,-1,54,56,-1,58,-1,60,62,-1,-1,-1,-1,-1,-1,-1,-1,-1,-1,-1,-1,-1,-1,-1,-1,-1,-1],"split_conditions":[1.136E2,1.084E2,1.197E2,1.044E2,1.122E2,1.158E2,1.24E2,1.011E2,1.054E2,1.101E2,3.0659577E-1,-3.0265707E-1,1.187E2,1.207E2,1.26E2,9.89E1,1.025E2,-3.0448848E-1,1.072E2,1.093E2,1.112E2,1.169E2,-2.9897162E-1,3.0241707E-1,1.228E2,1.248E2,1.292E2,9.64E1,1.002E2,3.014959E-1,1.035E2,2.180168E-1,-2.8114054E-1,3.011331E-1,5.8861274E-2,1.099E2,-2.7186993E-1,2.7099562E-1,1.177E2,1.217E2,2.8691524E-1,1.23E2,-2.9381236E-1,1.272E2,1.329E2,-4.562611E-2,2.7419528E-1,-2.9678E-1,-7.918616E-2,-2.097366E-1,2.7232167E-1,-1.6521752E-1,9.739877E-2,-1.8449204E-1,2.0293546E-1,6.3539553E-3,-2.5211605E-1,-1.6155931E-1,1.3138965E-3,4.2432986E-2,2.7978548E-1,-2.648843E-1,8.281107E-2],"split_indices":[12,26,26,12,26,26,12,26,26,12,0,0,12,12,26,12,12,0,12,12,12,12,0,0,26,12,12,26,26,0,26,0,0,0,0,26,0,0,26,12,0,26,0,26,26,0,0,0,0,0,0,0,0,0,0,0,0,0,0,0,0,0,0],"split_type":[0,0,0,0,0,0,0,0,0,0,0,0,0,0,0,0,0,0,0,0,0,0,0,0,0,0,0,0,0,0,0,0,0,0,0,0,0,0,0,0,0,0,0,0,0,0,0,0,0,0,0,0,0,0,0,0,0,0,0,0,0,0,0],"sum_hessian":[6.575298E2,3.5954114E2,2.9798865E2,1.7420566E2,1.853355E2,1.818997E2,1.1608894E2,1.0306386E2,7.114179E1,4.2451305E1,1.4288419E2,1.481687E2,3.3731E1,5.7079376E1,5.9009563E1,6.419571E1,3.886815E1,5.492472E1,1.6217075E1,3.3940594E1,8.510712E0,9.853534E0,2.3877466E1,4.0480316E1,1.659906E1,1.898271E1,4.0026855E1,4.220973E1,2.1985981E1,3.1582872E1,7.2852755E0,3.9337084E0,1.2283367E1,3.2515553E1,1.4250382E0,2.0965424E0,6.41417E0,6.702E0,3.1515334E0,5.222969E0,1.1376092E1,2.0764549E0,1.6906254E1,1.2573122E1,2.7453733E1,2.9030703E1,1.3179024E1,1.9080547E1,2.905434E0,1.899255E0,5.38602E0,1.0572912E0,1.0392511E0,1.4078325E0,1.7437007E0,1.7506597E0,3.4723096E0,1.069477E0,1.0069779E0,2.1022296E0,1.0470893E1,1.1661192E1,1.57925415E1],"tree_param":{"num_deleted":"0","num_feature":"38","num_nodes":"63","size_leaf_vector":"1"}},{"base_weights":[6.8320386E-4,-3.7476206E-1,3.939957E-1,2.4114458E-1,-9.226796E-1,8.927505E-1,-3.1567594E-1,-2.2626165E-1,8.7259007E-1,-5.0440234E-1,-2.980344E-1,2.976191E-1,4.4580156E-1,-8.654934E-1,2.3681958E-1,1.8709412E-1,-9.2870474E-1,2.959358E-1,4.364687E-1,-2.8942305E-1,7.117916E-1,-7.9800695E-1,9.3859977E-1,-9.762673E-1,-3.6014324E-1,8.8490885E-1,-1.9001572E-1,1.018937E0,-5.850108E-2,-2.9863033E-1,-4.9275923E-1,-6.539563E-1,2.7329677E-1,-4.3913694E-3,2.54952E-1,-2.678948E-1,-1.4406814E-2,5.9002303E-2,2.924459E-1,-8.731043E-2,-2.9585606E-1,2.2448032E-1,-2.7249286E-1,4.0167734E-1,2.8908515E-1,-7.513572E-1,2.0590208E-1,2.9507948E-2,3.4426644E-1,-2.311946E-1,1.7204599E-1,1.2939781E-1,-2.4325244E-1,-2.2037064E-1,-5.7238888E-2,2.2486743E-1,-1.1314162E-1,-2.2022933E-2,-2.956546E-1,1.7675471E-1,-3.4923095E-1],"categories":[],"categories_nodes":[],"categories_segments":[],"categories_sizes":[],"default_left":[0,0,0,0,0,0,0,0,0,0,0,0,0,0,0,0,0,0,0,0,0,0,0,0,0,0,0,0,0,0,0,0,0,0,0,0,0,0,0,0,0,0,0,0,0,0,0,0,0,0,0,0,0,0,0,0,0,0,0,0,0],"id":10,"left_children":[1,3,5,7,9,11,13,15,17,19,-1,-1,21,23,25,27,29,-1,31,-1,33,35,37,39,41,43,45,47,49,-1,51,53,-1,-1,-1,-1,-1,-1,-1,-1,-1,-1,-1,55,-1,57,59,-1,-1,-1,-1,-1,-1,-1,-1,-1,-1,-1,-1,-1,-1],"loss_changes":[7.5971954E1,8.905028E1,8.9216095E1,3.700579E1,3.6283798E0,6.1191025E0,3.193143E1,2.1213173E1,2.2139359E0,1.312623E1,0E0,0E0,1.8334631E1,2.5908356E0,1.4795979E1,9.548986E0,2.9525566E-1,0E0,7.228546E0,0E0,6.81952E-1,5.7553387E-1,3.7282562E-1,2.0561218E-3,7.384358E0,4.1828346E-1,7.423219E0,1.147172E0,1.7007608E1,0E0,1.985768E0,2.6704073E-2,0E0,0E0,0E0,0E0,0E0,0E0,0E0,0E0,0E0,0E0,0E0,1.5508211E0,0E0,2.1091037E0,1.1168488E1,0E0,0E0,0E0,0E0,0E0,0E0,0E0,0E0,0E0,0E0,0E0,0E0,0E0,0E0],"parents":[2147483647,0,0,1,1,2,2,3,3,4,4,5,5,6,6,7,7,8,8,9,9,12,12,13,13,14,14,15,15,16,16,18,18,20,20,21,21,22,22,23,23,24,24,25,25,26,26,27,27,28,28,30,30,31,31,43,43,45,45,46,46],"right_children":[2,4,6,8,10,12,14,16,18,20,-1,-1,22,24,26,28,30,-1,32,-1,34,36,38,40,42,44,46,48,50,-1,52,54,-1,-1,-1,-1,-1,-1,-1,-1,-1,-1,-1,56,-1,58,60,-1,-1,-1,-1,-1,-1,-1,-1,-1,-1,-1,-1,-1,-1],"split_conditions":[1.124E2,1.071E2,1.19E2,1.025E2,1.098E2,1.153E2,1.24E2,9.96E1,1.044E2,1.081E2,-2.980344E-1,2.976191E-1,1.172E2,1.215E2,1.272E2,8.89E1,1.009E2,2.959358E-1,1.058E2,-2.8942305E-1,1.088E2,1.163E2,1.182E2,1.193E2,1.228E2,1.256E2,1.315E2,8.4E1,9.44E1,-2.9863033E-1,1.02E2,1.048E2,2.7329677E-1,-4.3913694E-3,2.54952E-1,-2.678948E-1,-1.4406814E-2,5.9002303E-2,2.924459E-1,-8.731043E-2,-2.9585606E-1,2.2448032E-1,-2.7249286E-1,1.244E2,2.8908515E-1,1.295E2,1.41E2,2.9507948E-2,3.4426644E-1,-2.311946E-1,1.7204599E-1,1.2939781E-1,-2.4325244E-1,-2.2037064E-1,-5.7238888E-2,2.2486743E-1,-1.1314162E-1,-2.2022933E-2,-2.956546E-1,1.7675471E-1,-3.4923095E-1],"split_indices":[26,12,12,26,12,12,26,12,12,26,0,0,26,26,12,12,26,0,26,0,26,26,26,12,12,26,26,28,26,0,12,26,0,0,0,0,0,0,0,0,0,0,0,12,0,12,12,0,0,0,0,0,0,0,0,0,0,0,0,0,0],"split_type":[0,0,0,0,0,0,0,0,0,0,0,0,0,0,0,0,0,0,0,0,0,0,0,0,0,0,0,0,0,0,0,0,0,0,0,0,0,0,0,0,0,0,0,0,0,0,0,0,0,0,0,0,0,0,0,0,0,0,0,0,0],"sum_hessian":[5.124806E2,2.6221988E2,2.502607E2,1.2371425E2,1.3850562E2,1.468189E2,1.034418E2,7.146004E1,5.225421E1,2.1218853E1,1.17286766E2,1.191286E2,2.7690296E1,5.156261E1,5.1879192E1,4.5449017E1,2.6011024E1,4.0435448E1,1.1818765E1,1.5542586E1,5.6762667E0,7.6819468E0,2.000835E1,4.1527767E1,1.0034844E1,2.017425E1,3.1704943E1,9.642056E0,3.580696E1,2.1445063E1,4.5659614E0,3.469009E0,8.349755E0,1.0492E0,4.6270666E0,6.649239E0,1.0327078E0,1.230611E0,1.8777739E1,1.0255182E0,4.0502247E1,3.1997674E0,6.835077E0,3.6805801E0,1.649367E1,1.2741701E1,1.8963242E1,1.3983259E0,8.243731E0,1.6732615E1,1.9074347E1,1.078041E0,3.4879205E0,2.4556177E0,1.0133913E0,2.570126E0,1.1104541E0,3.6082883E0,9.133413E0,1.5263095E1,3.700147E0],"tree_param":{"num_deleted":"0","num_feature":"38","num_nodes":"61","size_leaf_vector":"1"}},{"base_weights":[-5.152982E-4,3.463942E-1,-3.9167434E-1,-2.0286289E-1,9.1055316E-1,-9.1402006E-1,2.1440426E-1,1.9076262E-1,-8.5051435E-1,5.472594E-1,2.9760727E-1,-3.013465E-1,-5.584081E-1,8.365113E-1,-2.0656647E-1,-1.1592379E-1,8.9560705E-1,-2.9585606E-1,-4.2560023E-1,2.8700587E-1,-6.661118E-1,7.028808E-1,-9.30705E-1,3.3591542E-1,2.896466E-1,-8.9037454E-1,1.15167014E-1,5.183153E-1,-4.8178363E-1,2.8954268E-1,3.2247907E-1,2.1508221E-1,-8.360681E-1,-3.6013305E-2,-2.4166523E-1,2.431357E-1,4.2826444E-2,-8.5702546E-2,-2.8790656E-1,2.5748584E-1,-2.1402013E-1,-2.825091E-1,-3.7733456E-1,5.7987744E-1,-3.2726064E-1,-2.4781846E-1,2.306525E-1,-2.7361062E-1,-3.3283293E-2,-9.116702E-2,1.9911899E-1,-7.574504E-2,-2.6787785E-1,4.495286E-5,-1.6694361E-1,3.1688426E-2,2.8372943E-1,-2.709602E-1,4.2295348E-2],"categories":[],"categories_nodes":[],"categories_segments":[],"categories_sizes":[],"default_left":[0,0,0,0,0,0,0,0,0,0,0,0,0,0,0,0,0,0,0,0,0,0,0,0,0,0,0,0,0,0,0,0,0,0,0,0,0,0,0,0,0,0,0,0,0,0,0,0,0,0,0,0,0,0,0,0,0,0,0],"id":11,"left_children":[1,3,5,7,9,11,13,15,17,19,-1,-1,21,23,25,27,29,-1,31,-1,33,35,37,39,-1,41,43,45,47,-1,49,-1,51,-1,-1,-1,-1,-1,-1,-1,-1,-1,53,55,57,-1,-1,-1,-1,-1,-1,-1,-1,-1,-1,-1,-1,-1,-1],"loss_changes":[5.487325E1,6.659365E1,6.0368206E1,2.8054037E1,2.5916748E0,2.729454E0,2.342648E1,1.4990455E1,1.9751453E0,1.1382686E1,0E0,0E0,1.1451603E1,2.002182E0,1.192972E1,1.1590175E1,5.254383E-1,0E0,6.1395063E0,0E0,3.637104E-1,2.3438478E-1,6.579304E-2,5.4991703E0,0E0,1.0058403E-1,7.8882184E0,6.818921E0,4.926678E0,0E0,1.0082476E0,0E0,7.824612E-2,0E0,0E0,0E0,0E0,0E0,0E0,0E0,0E0,0E0,2.1940401E-1,3.1315498E0,5.4726753E0,0E0,0E0,0E0,0E0,0E0,0E0,0E0,0E0,0E0,0E0,0E0,0E0,0E0,0E0],"parents":[2147483647,0,0,1,1,2,2,3,3,4,4,5,5,6,6,7,7,8,8,9,9,12,12,13,13,14,14,15,15,16,16,18,18,20,20,21,21,22,22,23,23,25,25,26,26,27,27,28,28,30,30,32,32,42,42,43,43,44,44],"right_children":[2,4,6,8,10,12,14,16,18,20,-1,-1,22,24,26,28,30,-1,32,-1,34,36,38,40,-1,42,44,46,48,-1,50,-1,52,-1,-1,-1,-1,-1,-1,-1,-1,-1,54,56,58,-1,-1,-1,-1,-1,-1,-1,-1,-1,-1,-1,-1,-1,-1],"split_conditions":[1.131E2,1.079E2,1.18E2,1.037E2,1.111E2,1.142E2,1.223E2,1.011E2,1.048E2,1.089E2,2.9760727E-1,-3.013465E-1,1.16E2,1.206E2,1.25E2,9.29E1,1.025E2,-2.9585606E-1,1.06E2,2.8700587E-1,1.101E2,1.153E2,1.172E2,1.191E2,2.896466E-1,1.24E2,1.315E2,8.59E1,9.54E1,2.8954268E-1,1.039E2,2.1508221E-1,1.074E2,-3.6013305E-2,-2.4166523E-1,2.431357E-1,4.2826444E-2,-8.5702546E-2,-2.8790656E-1,2.5748584E-1,-2.1402013E-1,-2.825091E-1,1.272E2,1.295E2,1.349E2,-2.4781846E-1,2.306525E-1,-2.7361062E-1,-3.3283293E-2,-9.116702E-2,1.9911899E-1,-7.574504E-2,-2.6787785E-1,4.495286E-5,-1.6694361E-1,3.1688426E-2,2.8372943E-1,-2.709602E-1,4.2295348E-2],"split_indices":[12,26,26,12,26,26,12,26,26,12,0,0,12,26,26,12,12,0,12,0,12,12,12,12,0,26,12,26,26,0,26,0,12,0,0,0,0,0,0,0,0,0,12,26,26,0,0,0,0,0,0,0,0,0,0,0,0,0,0],"split_type":[0,0,0,0,0,0,0,0,0,0,0,0,0,0,0,0,0,0,0,0,0,0,0,0,0,0,0,0,0,0,0,0,0,0,0,0,0,0,0,0,0,0,0,0,0,0,0,0,0,0,0,0,0,0,0,0,0,0,0],"sum_hessian":[4.023815E2,2.1331343E2,1.8906807E2,1.0840868E2,1.0490474E2,1.0127589E2,8.779219E1,6.786661E1,4.054208E1,2.0629854E1,8.427488E1,7.92818E1,2.1994093E1,3.5033245E1,5.275894E1,4.787231E1,1.9994293E1,2.9728912E1,1.0813168E1,1.5583181E1,5.046673E0,4.810123E0,1.718397E1,7.9155E0,2.7117746E1,1.6315266E1,3.6443676E1,1.7360384E1,3.0511929E1,1.7220957E1,2.773336E0,2.660632E0,8.152536E0,1.405072E0,3.6416008E0,3.6602633E0,1.1498599E0,1.2057768E0,1.5978193E1,5.4062243E0,2.509276E0,1.4072034E1,2.2432315E0,1.762272E1,1.8820957E1,2.3660986E0,1.4994285E1,1.3448942E1,1.7062986E1,1.0166842E0,1.7566516E0,1.206789E0,6.945747E0,1.0435253E0,1.1997063E0,8.236095E0,9.386624E0,8.023353E0,1.0797604E1],"tree_param":{"num_deleted":"0","num_feature":"38","num_nodes":"59","size_leaf_vector":"1"}},{"base_weights":[-2.4354982E-3,3.4002453E-1,-3.5273147E-1,-1.869891E-1,9.022001E-1,-8.948714E-1,1.9071963E-1,2.4406946E-1,-7.0415324E-1,4.6088052E-1,2.9412526E-1,-2.9911786E-1,-5.2327216E-1,8.887304E-1,-1.6115093E-1,-1.3682863E-1,8.502977E-1,-2.8444397E-1,-2.1270797E-1,2.6576066E-1,-2.2613728E-1,5.2525544E-1,-2.828188E-1,4.3450692E-1,2.9050922E-1,-8.0456597E-1,1.2147529E-1,8.452086E-1,-4.311378E-1,9.102479E-1,2.4808442E-2,7.133203E-1,-2.5969043E-1,2.3206711E-1,-5.639036E-3,2.4067296E-1,-1.6786218E-1,-1.6245428E-1,-2.7048025E-1,8.188403E-1,-1.6232812E-1,2.1332629E-2,3.0171674E-1,-3.1592837E-1,-2.395914E-2,1.0587612E-1,2.8901416E-1,4.4878818E-2,2.3763458E-1,-1.7953615E-1,1.2860638E-1,9.232764E-2,2.741033E-1,-2.195544E-1,2.8430033E-2],"categories":[],"categories_nodes":[],"categories_segments":[],"categories_sizes":[],"default_left":[0,0,0,0,0,0,0,0,0,0,0,0,0,0,0,0,0,0,0,0,0,0,0,0,0,0,0,0,0,0,0,0,0,0,0,0,0,0,0,0,0,0,0,0,0,0,0,0,0,0,0,0,0,0,0],"id":12,"left_children":[1,3,5,7,9,11,13,15,17,19,-1,-1,21,23,25,27,29,-1,31,-1,-1,33,-1,35,-1,37,39,41,43,45,-1,47,-1,-1,-1,-1,-1,49,-1,51,53,-1,-1,-1,-1,-1,-1,-1,-1,-1,-1,-1,-1,-1,-1],"loss_changes":[3.8458675E1,4.8198154E1,4.6862556E1,1.9009455E1,2.2616959E0,2.4975204E0,1.9784048E1,1.09298315E1,4.4353523E0,7.751403E0,0E0,0E0,8.963116E0,5.5423355E-1,9.919748E0,8.92556E0,7.626486E-1,0E0,9.154217E0,0E0,0E0,8.4447765E-1,0E0,2.5817344E0,0E0,8.888159E-1,7.732252E0,8.19139E-1,5.0398517E0,1.5717983E-1,0E0,1.6519094E-1,0E0,0E0,0E0,0E0,0E0,1.1331418E0,0E0,2.6514816E-1,4.1874685E0,0E0,0E0,0E0,0E0,0E0,0E0,0E0,0E0,0E0,0E0,0E0,0E0,0E0,0E0],"parents":[2147483647,0,0,1,1,2,2,3,3,4,4,5,5,6,6,7,7,8,8,9,9,12,12,13,13,14,14,15,15,16,16,18,18,21,21,23,23,25,25,26,26,27,27,28,28,29,29,31,31,37,37,39,39,40,40],"right_children":[2,4,6,8,10,12,14,16,18,20,-1,-1,22,24,26,28,30,-1,32,-1,-1,34,-1,36,-1,38,40,42,44,46,-1,48,-1,-1,-1,-1,-1,50,-1,52,54,-1,-1,-1,-1,-1,-1,-1,-1,-1,-1,-1,-1,-1,-1],"split_conditions":[1.122E2,1.071E2,1.172E2,1.007E2,1.098E2,1.134E2,1.204E2,9.8E1,1.032E2,1.086E2,2.9412526E-1,-2.9911786E-1,1.16E2,1.193E2,1.24E2,8.89E1,1.002E2,-2.8444397E-1,1.054E2,2.6576066E-1,-2.2613728E-1,1.145E2,-2.828188E-1,1.183E2,2.9050922E-1,1.217E2,1.267E2,4.51E-1,9.15E1,9.89E1,2.4808442E-2,1.039E2,-2.5969043E-1,2.3206711E-1,-5.639036E-3,2.4067296E-1,-1.6786218E-1,1.204E2,-2.7048025E-1,1.256E2,1.299E2,2.1332629E-2,3.0171674E-1,-3.1592837E-1,-2.395914E-2,1.0587612E-1,2.8901416E-1,4.4878818E-2,2.3763458E-1,-1.7953615E-1,1.2860638E-1,9.232764E-2,2.741033E-1,-2.195544E-1,2.8430033E-2],"split_indices":[12,26,26,12,26,26,12,26,26,12,0,0,12,26,26,12,12,0,12,0,0,12,0,12,0,12,12,33,26,26,0,26,0,0,0,0,0,26,0,26,26,0,0,0,0,0,0,0,0,0,0,0,0,0,0],"split_type":[0,0,0,0,0,0,0,0,0,0,0,0,0,0,0,0,0,0,0,0,0,0,0,0,0,0,0,0,0,0,0,0,0,0,0,0,0,0,0,0,0,0,0,0,0,0,0,0,0,0,0,0,0,0,0],"sum_hessian":[3.1858972E2,1.6111151E2,1.5747821E2,8.350077E1,7.761073E1,7.851049E1,7.896772E1,4.5829636E1,3.7671135E1,1.2722108E1,6.4888626E1,6.0256958E1,1.825353E1,2.5954891E1,5.301283E1,2.8621077E1,1.7208559E1,2.4552155E1,1.3118982E1,9.625157E0,3.0969503E0,5.1436334E0,1.3109897E1,4.8346677E0,2.1120224E1,1.56158E1,3.7397026E1,6.168032E0,2.2453045E1,1.5789553E1,1.4190063E0,5.38669E0,7.732292E0,3.2421126E0,1.9015206E0,3.6699612E0,1.1647066E0,2.4011006E0,1.32147E1,1.0271801E1,2.7125227E1,1.3071463E0,4.8608856E0,7.3829875E0,1.5070056E1,2.0394328E0,1.375012E1,1.0160555E0,4.3706346E0,1.3747667E0,1.0263338E0,2.2721627E0,7.999638E0,7.862193E0,1.9263033E1],"tree_param":{"num_deleted":"0","num_feature":"38","num_nodes":"55","size_leaf_vector":"1"}},{"base_weights":[-1.3029801E-3,3.2707882E-1,-3.1757593E-1,-1.6263723E-1,8.882949E-1,-8.943875E-1,1.5971665E-1,3.2778156E-1,-5.630739E-1,3.780094E-1,2.8819612E-1,-2.9337734E-1,-4.8989472E-1,8.591198E-1,-1.5908648E-1,-9.770557E-3,2.8464743E-1,-9.3250114E-1,-2.1716352E-1,2.5704554E-1,-2.1039195E-1,2.0978473E-1,-8.4645534E-1,3.5344756E-1,2.8021806E-1,-8.0606437E-1,9.7827785E-2,2.977177E-1,-2.3536874E-1,-2.8943342E-1,-6.6675544E-2,4.8170805E-1,-7.717263E-1,-6.1366457E-2,-2.6898414E-1,2.1905993E-1,-1.4490542E-1,-2.9265982E-1,-2.7179995E-1,3.21788E-1,-7.208995E-1,-2.525722E-1,5.526945E-2,8.447052E-3,2.4353343E-1,-7.380047E-2,-2.709779E-1,-1.9766721E-1,1.02326535E-1,2.5079736E-2,2.8277543E-1,-3.3731407E-1,1.4326085E-1],"categories":[],"categories_nodes":[],"categories_segments":[],"categories_sizes":[],"default_left":[0,0,0,0,0,0,0,0,0,0,0,0,0,0,0,0,0,0,0,0,0,0,0,0,0,0,0,0,0,0,0,0,0,0,0,0,0,0,0,0,0,0,0,0,0,0,0,0,0,0,0,0,0],"id":13,"left_children":[1,3,5,7,9,11,13,15,17,19,-1,-1,21,23,25,27,-1,29,31,-1,-1,-1,33,35,-1,37,39,-1,41,-1,-1,43,45,-1,-1,-1,-1,47,-1,49,51,-1,-1,-1,-1,-1,-1,-1,-1,-1,-1,-1,-1],"loss_changes":[2.666293E1,3.476094E1,3.6145153E1,1.3559397E1,1.8097E0,1.5268326E0,1.628143E1,6.559429E0,4.635663E0,5.2297297E0,0E0,0E0,5.750149E0,5.3490067E-1,8.486156E0,5.0340304E0,0E0,1.9832134E-1,8.45497E0,0E0,0E0,0E0,1.324892E-1,1.7881868E0,0E0,4.7801876E-1,7.0338717E0,0E0,4.771716E0,0E0,0E0,1.4507093E0,6.085024E-1,0E0,0E0,0E0,0E0,1.115355E0,0E0,4.3304424E0,4.538939E0,0E0,0E0,0E0,0E0,0E0,0E0,0E0,0E0,0E0,0E0,0E0,0E0],"parents":[2147483647,0,0,1,1,2,2,3,3,4,4,5,5,6,6,7,7,8,8,9,9,12,12,13,13,14,14,15,15,17,17,18,18,22,22,23,23,25,25,26,26,28,28,31,31,32,32,37,37,39,39,40,40],"right_children":[2,4,6,8,10,12,14,16,18,20,-1,-1,22,24,26,28,-1,30,32,-1,-1,-1,34,36,-1,38,40,-1,42,-1,-1,44,46,-1,-1,-1,-1,48,-1,50,52,-1,-1,-1,-1,-1,-1,-1,-1,-1,-1,-1,-1],"split_conditions":[1.117E2,1.067E2,1.162E2,9.8E1,1.089E2,1.134E2,1.2E2,9.67E1,9.98E1,1.079E2,2.8819612E-1,-2.9337734E-1,1.145E2,1.18E2,1.232E2,8.59E1,2.8464743E-1,4.1E1,1.039E2,2.5704554E-1,-2.1039195E-1,2.0978473E-1,1.156E2,1.169E2,2.8021806E-1,1.217E2,1.375E2,2.977177E-1,9.15E1,-2.8943342E-1,-6.6675544E-2,1.026E2,1.057E2,-6.1366457E-2,-2.6898414E-1,2.1905993E-1,-1.4490542E-1,1.203E2,-2.7179995E-1,1.349E2,3.1E1,-2.525722E-1,5.526945E-2,8.447052E-3,2.4353343E-1,-7.380047E-2,-2.709779E-1,-1.9766721E-1,1.02326535E-1,2.5079736E-2,2.8277543E-1,-3.3731407E-1,1.4326085E-1],"split_indices":[12,26,26,12,26,26,12,26,26,12,0,0,12,26,26,12,0,14,12,0,0,0,12,12,0,12,12,0,26,0,0,26,12,0,0,0,0,26,0,26,21,0,0,0,0,0,0,0,0,0,0,0,0],"split_type":[0,0,0,0,0,0,0,0,0,0,0,0,0,0,0,0,0,0,0,0,0,0,0,0,0,0,0,0,0,0,0,0,0,0,0,0,0,0,0,0,0,0,0,0,0,0,0,0,0,0,0,0,0],"sum_hessian":[2.5472401E2,1.2495295E2,1.2977107E2,6.7106316E1,5.7846634E1,5.8363945E1,7.140713E1,3.0245628E1,3.6860683E1,7.956968E0,4.9889668E1,4.7198685E1,1.116526E1,2.1827108E1,4.9580017E1,2.023285E1,1.0012779E1,1.7004421E1,1.9856262E1,5.654604E0,2.3023639E0,2.3538084E0,8.811452E0,3.555074E0,1.8272034E1,1.3484643E1,3.609537E1,3.0931916E0,1.7139658E1,1.5922468E1,1.0819535E0,8.843223E0,1.101304E1,1.0066797E0,7.804772E0,2.5386727E0,1.0164012E0,2.8372338E0,1.0647409E1,2.8818995E1,7.2763777E0,6.597058E0,1.05426E1,4.1820073E0,4.661216E0,2.7783856E0,8.234654E0,1.7729865E0,1.0642473E0,2.1647783E1,7.171212E0,5.489878E0,1.7864993E0],"tree_param":{"num_deleted":"0","num_feature":"38","num_nodes":"53","size_leaf_vector":"1"}},{"base_weights":[-1.7603694E-3,3.3004314E-1,-2.679362E-1,-1.3846E-1,8.8732696E-1,-8.599835E-1,1.5592255E-1,3.8094005E-1,-5.028511E-1,4.9259222E-1,2.9329392E-1,-2.9124865E-1,-4.9595684E-1,8.4599596E-1,-1.4320698E-1,-1.6108441E-1,7.702803E-1,-9.3049145E-1,-1.5529384E-1,8.120986E-1,-1.8096748E-1,4.7321492E-1,-2.718192E-1,4.7260147E-1,2.8295672E-1,-2.6063973E-1,7.411747E-2,6.5530705E-1,-7.82873E-1,2.9268405E-1,3.6603847E-1,-8.8967375E-2,-2.902675E-1,6.9984406E-1,-5.258461E-1,2.606805E-1,6.484081E-2,-1.1500616E-2,1.9764997E-1,2.4205832E-1,-1.2369064E-1,7.291375E-1,-1.900663E-1,6.5443153E-3,2.6620728E-1,-2.760467E-1,-3.947761E-2,-1.9991885E-1,2.3584738E-1,6.788497E-3,2.5482103E-1,-4.5114342E-2,-2.5841945E-1,7.657179E-2,2.6618233E-1,-2.3888561E-1,1.4382432E-2],"categories":[],"categories_nodes":[],"categories_segments":[],"categories_sizes":[],"default_left":[0,0,0,0,0,0,0,0,0,0,0,0,0,0,0,0,0,0,0,0,0,0,0,0,0,0,0,0,0,0,0,0,0,0,0,0,0,0,0,0,0,0,0,0,0,0,0,0,0,0,0,0,0,0,0,0,0],"id":14,"left_children":[1,3,5,7,9,11,13,15,17,19,-1,-1,21,23,25,27,29,31,33,35,-1,37,-1,39,-1,-1,41,43,45,-1,47,-1,-1,49,51,-1,-1,-1,-1,-1,-1,53,55,-1,-1,-1,-1,-1,-1,-1,-1,-1,-1,-1,-1,-1,-1],"loss_changes":[1.8471207E1,2.4429676E1,2.9254955E1,9.927836E0,1.0391655E0,1.478344E0,1.4255853E1,4.720146E0,4.4130216E0,3.976423E0,0E0,0E0,5.747511E0,3.109665E-1,7.731822E0,5.5544114E0,7.092967E-1,3.1404495E-2,6.108495E0,8.778715E-2,0E0,4.6543562E-1,0E0,2.199326E0,0E0,0E0,6.7728605E0,6.9185734E-1,4.2370963E-1,0E0,3.095209E0,0E0,0E0,5.789504E-1,1.5347819E0,0E0,0E0,0E0,0E0,0E0,0E0,6.147723E-1,4.0944405E0,0E0,0E0,0E0,0E0,0E0,0E0,0E0,0E0,0E0,0E0,0E0,0E0,0E0,0E0],"parents":[2147483647,0,0,1,1,2,2,3,3,4,4,5,5,6,6,7,7,8,8,9,9,12,12,13,13,14,14,15,15,16,16,17,17,18,18,19,19,21,21,23,23,26,26,27,27,28,28,30,30,33,33,34,34,41,41,42,42],"right_children":[2,4,6,8,10,12,14,16,18,20,-1,-1,22,24,26,28,30,32,34,36,-1,38,-1,40,-1,-1,42,44,46,-1,48,-1,-1,50,52,-1,-1,-1,-1,-1,-1,54,56,-1,-1,-1,-1,-1,-1,-1,-1,-1,-1,-1,-1,-1,-1],"split_conditions":[1.101E2,1.054E2,1.153E2,9.61E1,1.089E2,1.117E2,1.193E2,9.24E1,9.83E1,1.075E2,2.9329392E-1,-2.9124865E-1,1.142E2,1.183E2,1.217E2,8.89E1,9.36E1,9.67E1,1.002E2,1.057E2,-1.8096748E-1,1.127E2,-2.718192E-1,1.163E2,2.8295672E-1,-2.6063973E-1,1.26E2,8.71E1,9.15E1,2.9268405E-1,9.47E1,-8.8967375E-2,-2.902675E-1,9.91E1,1.044E2,2.606805E-1,6.484081E-2,-1.1500616E-2,1.9764997E-1,2.4205832E-1,-1.2369064E-1,1.246E2,1.286E2,6.5443153E-3,2.6620728E-1,-2.760467E-1,-3.947761E-2,-1.9991885E-1,2.3584738E-1,6.788497E-3,2.5482103E-1,-4.5114342E-2,-2.5841945E-1,7.657179E-2,2.6618233E-1,-2.3888561E-1,1.4382432E-2],"split_indices":[12,26,26,12,26,26,12,26,26,12,0,0,12,26,26,12,12,12,12,12,0,26,0,12,0,0,12,26,26,0,26,0,0,26,12,0,0,0,0,0,0,26,26,0,0,0,0,0,0,0,0,0,0,0,0,0,0],"split_type":[0,0,0,0,0,0,0,0,0,0,0,0,0,0,0,0,0,0,0,0,0,0,0,0,0,0,0,0,0,0,0,0,0,0,0,0,0,0,0,0,0,0,0,0,0,0,0,0,0,0,0,0,0,0,0,0,0],"sum_hessian":[2.0714282E2,9.209775E1,1.1504508E2,5.0442646E1,4.16551E1,4.757009E1,6.747499E1,2.0779007E1,2.9663637E1,8.958126E0,3.2696976E1,3.518839E1,1.2381701E1,1.985123E1,4.762376E1,8.931367E0,1.1847641E1,1.2547612E1,1.7116026E1,7.1363096E0,1.8218166E0,3.6357522E0,8.74595E0,5.310799E0,1.4540432E1,1.0285462E1,3.73383E1,3.8381171E0,5.09325E0,6.919477E0,4.928164E0,1.1903504E0,1.1357262E1,4.905881E0,1.2210145E1,6.0968256E0,1.0394839E0,1.1792626E0,2.4564896E0,3.9187436E0,1.3920555E0,1.0225391E1,2.7112907E1,1.3222933E0,2.5158236E0,3.8655884E0,1.2276614E0,1.2558161E0,3.6723478E0,1.0957129E0,3.8101683E0,6.445798E0,5.7643466E0,3.2124617E0,7.0129304E0,6.982489E0,2.0130419E1],"tree_param":{"num_deleted":"0","num_feature":"38","num_nodes":"57","size_leaf_vector":"1"}},{"base_weights":[-4.2993051E-4,2.6116812E-1,-2.8980467E-1,-1.0772644E-1,8.870593E-1,-8.85388E-1,9.941825E-2,1.20327175E-1,-8.01813E-1,4.8758906E-1,2.8964496E-1,-2.8918344E-1,-4.4430116E-1,6.133422E-1,-1.8737875E-1,-1.1057492E-1,7.731131E-1,-2.7508667E-1,-2.9482308E-1,2.4697186E-1,-1.5191609E-1,1.4361815E-1,-2.4367698E-1,5.1139273E-2,8.4437346E-1,-8.1501436E-1,2.5718685E-2,3.4700477E-1,-5.004499E-1,2.6730525E-1,2.8555155E-1,1.1824252E-1,-2.0347668E-1,2.0298405E-1,-1.8245274E-1,1.0058943E-1,2.697807E-1,-5.8635935E-2,-2.626257E-1,4.2256203E-1,-3.6305168E-1,-3.6401458E-2,2.3672666E-1,-2.711395E-1,-5.1163595E-2,-9.5020056E-2,1.9157752E-1,2.6104925E-3,2.727625E-1,-2.4708165E-1,4.6953622E-2],"categories":[],"categories_nodes":[],"categories_segments":[],"categories_sizes":[],"default_left":[0,0,0,0,0,0,0,0,0,0,0,0,0,0,0,0,0,0,0,0,0,0,0,0,0,0,0,0,0,0,0,0,0,0,0,0,0,0,0,0,0,0,0,0,0,0,0,0,0,0,0],"id":15,"left_children":[1,3,5,7,9,11,13,15,17,19,-1,-1,21,23,25,27,29,-1,31,-1,-1,-1,-1,33,35,37,39,41,43,-1,45,-1,-1,-1,-1,-1,-1,-1,-1,47,49,-1,-1,-1,-1,-1,-1,-1,-1,-1,-1],"loss_changes":[1.290273E1,2.076469E1,1.884781E1,9.15303E0,5.7261467E-1,6.834793E-1,7.4610424E0,6.7077866E0,5.6329155E-1,2.914328E0,0E0,0E0,2.6662447E0,2.3058987E0,4.4018726E0,6.1196756E0,4.1269207E-1,0E0,1.3548853E0,0E0,0E0,0E0,0E0,3.022699E0,5.488968E-2,1.4074993E-1,4.0755696E0,3.3927808E0,2.2950578E0,0E0,9.95698E-1,0E0,0E0,0E0,0E0,0E0,0E0,0E0,0E0,2.618915E0,3.330466E0,0E0,0E0,0E0,0E0,0E0,0E0,0E0,0E0,0E0,0E0],"parents":[2147483647,0,0,1,1,2,2,3,3,4,4,5,5,6,6,7,7,8,8,9,9,12,12,13,13,14,14,15,15,16,16,18,18,23,23,24,24,25,25,26,26,27,27,28,28,30,30,39,39,40,40],"right_children":[2,4,6,8,10,12,14,16,18,20,-1,-1,22,24,26,28,30,-1,32,-1,-1,-1,-1,34,36,38,40,42,44,-1,46,-1,-1,-1,-1,-1,-1,-1,-1,48,50,-1,-1,-1,-1,-1,-1,-1,-1,-1,-1],"split_conditions":[1.134E2,1.095E2,1.172E2,1.06E2,1.122E2,1.146E2,1.24E2,1.026E2,1.072E2,1.109E2,2.8964496E-1,-2.8918344E-1,1.16E2,1.21E2,1.26E2,9.54E1,1.038E2,-2.7508667E-1,1.086E2,2.4697186E-1,-1.5191609E-1,1.4361815E-1,-2.4367698E-1,1.187E2,1.223E2,1.248E2,1.329E2,9.24E1,9.67E1,2.6730525E-1,1.051E2,1.1824252E-1,-2.0347668E-1,2.0298405E-1,-1.8245274E-1,1.0058943E-1,2.697807E-1,-5.8635935E-2,-2.626257E-1,1.315E2,1.375E2,-3.6401458E-2,2.3672666E-1,-2.711395E-1,-5.1163595E-2,-9.5020056E-2,1.9157752E-1,2.6104925E-3,2.727625E-1,-2.4708165E-1,4.6953622E-2],"split_indices":[12,26,26,12,26,26,12,26,26,12,0,0,12,26,26,12,12,0,12,0,0,0,0,12,26,12,12,26,26,0,26,0,0,0,0,0,0,0,0,26,26,0,0,0,0,0,0,0,0,0,0],"split_type":[0,0,0,0,0,0,0,0,0,0,0,0,0,0,0,0,0,0,0,0,0,0,0,0,0,0,0,0,0,0,0,0,0,0,0,0,0,0,0,0,0,0,0,0,0,0,0,0,0,0,0],"sum_hessian":[1.6844601E2,8.852021E1,7.9925804E1,5.6215305E1,3.2304905E1,3.1085089E1,4.8840714E1,4.2934956E1,1.3280349E1,6.485724E0,2.5819183E1,2.5379635E1,5.7054543E0,1.7085634E1,3.1755081E1,3.23299E1,1.0605055E1,1.0163491E1,3.116858E0,4.9768796E0,1.5088446E0,1.5403613E0,4.1650934E0,5.3319516E0,1.1753683E1,7.3328977E0,2.4422184E1,1.4924089E1,1.740581E1,7.873542E0,2.7315133E0,1.1044371E0,2.0124207E0,2.7227325E0,2.609219E0,1.8359404E0,9.917743E0,1.027696E0,6.3052015E0,1.2042597E1,1.2379586E1,7.5991244E0,7.324965E0,7.04854E0,1.035727E1,1.0474343E0,1.6840788E0,7.0580635E0,4.984534E0,6.2522526E0,6.1273336E0],"tree_param":{"num_deleted":"0","num_feature":"38","num_nodes":"51","size_leaf_vector":"1"}},{"base_weights":[2.0264929E-4,2.524838E-1,-2.4805258E-1,-8.1912644E-2,8.794755E-1,-8.9897466E-1,8.131688E-2,2.0949557E-1,-5.2450186E-1,3.5798973E-1,2.819436E-1,-2.8108275E-1,-3.6749545E-1,6.82636E-1,-1.3641097E-1,-3.251319E-2,2.5832424E-1,-8.6577153E-1,-4.25052E-2,2.0490484E-1,-9.518477E-2,4.648229E-3,-1.6557866E-1,2.2287935E-1,2.636317E-1,-7.8536505E-1,4.4582434E-2,5.116597E-1,-3.0002224E-1,-2.7318358E-1,-7.694926E-2,5.5178344E-1,-2.030011E-1,1.9776295E-1,-1.4635666E-1,-6.2377375E-2,-2.577998E-1,1.9403005E-1,-8.211693E-1,-1.7160961E-1,2.3038967E-1,-2.615188E-1,-3.9949063E-3,2.0381467E-1,3.586775E-2,-1.7724232E-3,2.9480597E-1,-4.3806206E-2,-3.533477E-1],"categories":[],"categories_nodes":[],"categories_segments":[],"categories_sizes":[],"default_left":[0,0,0,0,0,0,0,0,0,0,0,0,0,0,0,0,0,0,0,0,0,0,0,0,0,0,0,0,0,0,0,0,0,0,0,0,0,0,0,0,0,0,0,0,0,0,0,0,0],"id":16,"left_children":[1,3,5,7,9,11,13,15,17,19,-1,-1,21,23,25,27,-1,29,31,-1,-1,-1,-1,33,-1,35,37,39,41,-1,-1,43,-1,-1,-1,-1,-1,45,47,-1,-1,-1,-1,-1,-1,-1,-1,-1,-1],"loss_changes":[8.855728E0,1.4775677E1,1.5352457E1,6.1267123E0,4.3375587E-1,1.405487E-1,6.408813E0,4.576497E0,3.0567408E0,1.1283771E0,0E0,0E0,2.3793778E-1,9.755182E-1,4.292732E0,3.3555527E0,0E0,6.583309E-2,3.707841E0,0E0,0E0,0E0,0E0,1.9417405E0,0E0,1.6126347E-1,3.9490619E0,2.5555468E0,2.5089192E0,0E0,0E0,2.0105112E-1,0E0,0E0,0E0,0E0,0E0,4.0720387E0,9.123113E-1,0E0,0E0,0E0,0E0,0E0,0E0,0E0,0E0,0E0,0E0],"parents":[2147483647,0,0,1,1,2,2,3,3,4,4,5,5,6,6,7,7,8,8,9,9,12,12,13,13,14,14,15,15,17,17,18,18,23,23,25,25,26,26,27,27,28,28,31,31,37,37,38,38],"right_children":[2,4,6,8,10,12,14,16,18,20,-1,-1,22,24,26,28,-1,30,32,-1,-1,-1,-1,34,-1,36,38,40,42,-1,-1,44,-1,-1,-1,-1,-1,46,48,-1,-1,-1,-1,-1,-1,-1,-1,-1,-1],"split_conditions":[1.122E2,1.088E2,1.153E2,1.011E2,1.105E2,1.142E2,1.206E2,9.96E1,1.033E2,1.082E2,2.819436E-1,-2.8108275E-1,1.173E2,1.193E2,1.228E2,9.15E1,2.5832424E-1,1.025E2,1.067E2,2.0490484E-1,-9.518477E-2,4.648229E-3,-1.6557866E-1,1.172E2,2.636317E-1,1.217E2,1.41E2,8.59E1,9.29E1,-2.7318358E-1,-7.694926E-2,1.048E2,-2.030011E-1,1.9776295E-1,-1.4635666E-1,-6.2377375E-2,-2.577998E-1,1.375E2,1E0,-1.7160961E-1,2.3038967E-1,-2.615188E-1,-3.9949063E-3,2.0381467E-1,3.586775E-2,-1.7724232E-3,2.9480597E-1,-4.3806206E-2,-3.533477E-1],"split_indices":[12,26,26,12,26,26,12,26,26,12,0,0,12,26,26,12,0,26,12,0,0,0,0,12,0,12,12,26,26,0,0,12,0,0,0,0,0,26,37,0,0,0,0,0,0,0,0,0,0],"split_type":[0,0,0,0,0,0,0,0,0,0,0,0,0,0,0,0,0,0,0,0,0,0,0,0,0,0,0,0,0,0,0,0,0,0,0,0,0,0,0,0,0,0,0,0,0,0,0,0,0],"sum_hessian":[1.3939731E2,6.912961E1,7.02677E1,4.565146E1,2.3478151E1,2.3028282E1,4.7239418E1,2.78447E1,1.780676E1,3.1537387E0,2.0324411E1,2.0780844E1,2.2474368E0,1.1990067E1,3.524935E1,2.099641E1,6.848289E0,9.959139E0,7.8476205E0,2.1212552E0,1.0324837E0,1.0282307E0,1.2192062E0,4.2243204E0,7.765746E0,6.9589076E0,2.8290443E1,6.6190696E0,1.4377341E1,8.815748E0,1.1433913E0,4.1182413E0,3.7293794E0,2.6623566E0,1.5619639E0,1.2229285E0,5.735979E0,2.4787468E1,3.5029745E0,1.0304346E0,5.588635E0,4.1204467E0,1.0256894E1,2.7380898E0,1.3801515E0,2.056611E1,4.221358E0,1.6980293E0,1.8049452E0],"tree_param":{"num_deleted":"0","num_feature":"38","num_nodes":"49","size_leaf_vector":"1"}},{"base_weights":[-2.964322E-3,2.6788747E-1,-1.9464965E-1,-1.0827872E-1,8.49831E-1,-8.459912E-1,8.677107E-2,1.5317197E-1,-6.306376E-1,4.4795528E-1,2.7937302E-1,-2.8058687E-1,-4.0353435E-1,7.232484E-1,-1.19008E-1,-2.8139519E-2,2.4567826E-1,-2.4756233E-1,-9.1465436E-2,2.2222464E-1,-1.1637017E-1,1.3587157E-1,-2.244254E-1,1.9838831E-1,2.620241E-1,-2.4433872E-1,5.002232E-2,1.9357462E-1,-6.481113E-1,1.379383E-1,-1.8145621E-1,1.920073E-1,-1.345116E-1,5.1077515E-1,-2.4301475E-1,-8.767338E-2,1.3372947E-1,-2.3603605E-1,-5.1107544E-2,5.016724E-2,2.6156482E-1,-2.3447141E-1,4.3612337E-3],"categories":[],"categories_nodes":[],"categories_segments":[],"categories_sizes":[],"default_left":[0,0,0,0,0,0,0,0,0,0,0,0,0,0,0,0,0,0,0,0,0,0,0,0,0,0,0,0,0,0,0,0,0,0,0,0,0,0,0,0,0,0,0],"id":17,"left_children":[1,3,5,7,9,11,13,15,17,19,-1,-1,21,23,25,27,-1,-1,29,-1,-1,-1,-1,31,-1,-1,33,35,37,-1,-1,-1,-1,39,41,-1,-1,-1,-1,-1,-1,-1,-1],"loss_changes":[6.240362E0,1.0997184E1,1.2973236E1,4.3500724E0,2.2645092E-1,4.651699E-1,6.6412325E0,2.6256032E0,1.0348768E0,1.5699008E0,0E0,0E0,1.9146084E0,8.0162287E-1,4.587701E0,2.5876338E0,0E0,0E0,1.3907136E0,0E0,0E0,0E0,0E0,1.4425126E0,0E0,0E0,4.452689E0,1.8411245E0,1.9380927E-1,0E0,0E0,0E0,0E0,1.440351E0,2.823464E0,0E0,0E0,0E0,0E0,0E0,0E0,0E0,0E0],"parents":[2147483647,0,0,1,1,2,2,3,3,4,4,5,5,6,6,7,7,8,8,9,9,12,12,13,13,14,14,15,15,18,18,23,23,26,26,27,27,28,28,33,33,34,34],"right_children":[2,4,6,8,10,12,14,16,18,20,-1,-1,22,24,26,28,-1,-1,30,-1,-1,-1,-1,32,-1,-1,34,36,38,-1,-1,-1,-1,40,42,-1,-1,-1,-1,-1,-1,-1,-1],"split_conditions":[1.089E2,1.044E2,1.134E2,9.96E1,1.075E2,1.109E2,1.18E2,9.87E1,1.018E2,1.058E2,2.7937302E-1,-2.8058687E-1,1.121E2,1.16E2,1.206E2,9.64E1,2.4567826E-1,-2.4756233E-1,1.035E2,2.2222464E-1,-1.1637017E-1,1.3587157E-1,-2.244254E-1,1.145E2,2.620241E-1,-2.4433872E-1,1.28E2,4.64E-1,9.72E1,1.379383E-1,-1.8145621E-1,1.920073E-1,-1.345116E-1,1.272E2,1.306E2,-8.767338E-2,1.3372947E-1,-2.3603605E-1,-5.1107544E-2,5.016724E-2,2.6156482E-1,-2.3447141E-1,4.3612337E-3],"split_indices":[12,26,26,12,26,26,12,26,26,12,0,0,12,26,26,12,0,0,12,0,0,0,0,12,0,0,12,33,26,0,0,0,0,26,26,0,0,0,0,0,0,0,0],"split_type":[0,0,0,0,0,0,0,0,0,0,0,0,0,0,0,0,0,0,0,0,0,0,0,0,0,0,0,0,0,0,0,0,0,0,0,0,0,0,0,0,0,0,0],"sum_hessian":[1.1819143E2,4.881632E1,6.937511E1,3.0144777E1,1.8671541E1,2.0325674E1,4.9049435E1,2.056058E1,9.584198E0,4.2406635E0,1.4430877E1,1.5985556E1,4.340118E0,1.1369314E1,3.768012E1,1.69124E1,3.6481802E0,6.652877E0,2.9313219E0,3.2248197E0,1.015844E0,1.154909E0,3.185209E0,3.0455592E0,8.323754E0,6.620881E0,3.1059238E1,1.2963989E1,3.94841E0,1.4638648E0,1.4674569E0,1.8159589E0,1.2296004E0,1.1785472E1,1.9273766E1,4.37574E0,8.588249E0,2.5588214E0,1.3895887E0,6.789323E0,4.9961495E0,5.577104E0,1.3696662E1],"tree_param":{"num_deleted":"0","num_feature":"38","num_nodes":"43","size_leaf_vector":"1"}},{"base_weights":[-3.8624913E-3,1.5008427E-1,-2.977552E-1,-1.0022973E-1,5.797063E-1,-5.190589E-1,1.2043358E-1,1.0898842E-1,-7.334483E-1,2.6815143E-1,2.1540949E-1,-3.364399E-1,-8.2208395E-1,5.104577E-1,-2.5437427E-1,-8.150035E-2,7.2714114E-1,-2.4903212E-1,-4.866737E-2,-4.5555583E-1,5.581536E-1,-6.1186016E-1,2.6194352E-1,-2.779878E-1,-1.9290375E-2,-5.2551545E-2,8.0877715E-1,5.574662E-1,-8.2536083E-1,1.3885257E-1,-5.3641826E-1,2.4623819E-1,6.3612096E-2,-2.145369E-2,-1.8863375E-1,-2.1530444E-2,6.4764875E-1,-1.5238215E-1,-7.4562424E-1,1.6759741E-1,-4.3444533E-2,6.8645164E-2,2.756742E-1,5.2287824E-2,1.9291063E-1,-1.1789757E-2,-3.2839954E-1,-2.399092E-2,2.037233E-1,-2.4806534E-1,-3.3540875E-2,6.0771514E-2,2.170242E-1,-1.4782333E-1,1.197952E-1,-2.4715039E-1,-7.97189E-2,-1.471525E-1,1.4399579E-1],"categories":[],"categories_nodes":[],"categories_segments":[],"categories_sizes":[],"default_left":[0,0,0,0,0,0,0,0,0,0,0,0,0,0,0,0,0,0,0,0,0,0,0,0,0,0,0,0,0,0,0,0,0,0,0,0,0,0,0,0,0,0,0,0,0,0,0,0,0,0,0,0,0,0,0,0,0,0,0],"id":18,"left_children":[1,3,5,7,9,11,13,15,17,-1,19,21,23,25,27,29,31,-1,-1,33,35,37,39,-1,-1,-1,41,43,45,47,49,-1,-1,-1,-1,-1,51,53,55,-1,57,-1,-1,-1,-1,-1,-1,-1,-1,-1,-1,-1,-1,-1,-1,-1,-1,-1,-1],"loss_changes":[4.6395273E0,7.2967963E0,3.3244016E0,5.8274474E0,2.6601086E0,1.0093074E0,2.0315428E0,4.001577E0,4.6736813E-1,0E0,3.2116137E0,2.8287978E0,5.7775354E-1,1.5136323E0,3.8446152E0,2.730156E0,2.112832E-1,0E0,0E0,2.809149E-1,5.516639E-1,5.8630514E-1,5.501744E-1,0E0,0E0,0E0,9.965825E-2,6.341934E-3,9.497249E-1,2.2580252E0,9.991524E-1,0E0,0E0,0E0,0E0,0E0,1.21411085E-1,9.149406E-1,1.02488995E-1,0E0,1.1218462E0,0E0,0E0,0E0,0E0,0E0,0E0,0E0,0E0,0E0,0E0,0E0,0E0,0E0,0E0,0E0,0E0,0E0,0E0],"parents":[2147483647,0,0,1,1,2,2,3,3,4,4,5,5,6,6,7,7,8,8,10,10,11,11,12,12,13,13,14,14,15,15,16,16,19,19,20,20,21,21,22,22,26,26,27,27,28,28,29,29,30,30,36,36,37,37,38,38,40,40],"right_children":[2,4,6,8,10,12,14,16,18,-1,20,22,24,26,28,30,32,-1,-1,34,36,38,40,-1,-1,-1,42,44,46,48,50,-1,-1,-1,-1,-1,52,54,56,-1,58,-1,-1,-1,-1,-1,-1,-1,-1,-1,-1,-1,-1,-1,-1,-1,-1,-1,-1],"split_conditions":[5E-1,1.125E2,1.3E2,1.077E2,1.15E2,1.299E2,1E0,1.039E2,1.107E2,2.6815143E-1,1.206E2,1.223E2,9E0,1.329E2,1.329E2,9.91E1,1.054E2,-2.4903212E-1,-4.866737E-2,1.183E2,5.83E-1,1.155E2,1.252E2,-2.779878E-1,-1.9290375E-2,-5.2551545E-2,1.5E1,1.289E2,2E1,9.67E1,1.002E2,2.4623819E-1,6.3612096E-2,-2.145369E-2,-1.8863375E-1,-2.1530444E-2,1.24E2,1.118E2,1.187E2,1.6759741E-1,1.28E2,6.8645164E-2,2.756742E-1,5.2287824E-2,1.9291063E-1,-1.1789757E-2,-3.2839954E-1,-2.399092E-2,2.037233E-1,-2.4806534E-1,-3.3540875E-2,6.0771514E-2,2.170242E-1,-1.4782333E-1,1.197952E-1,-2.4715039E-1,-7.97189E-2,-1.471525E-1,1.4399579E-1],"split_indices":[16,26,28,12,12,12,37,26,26,0,26,26,30,26,12,12,12,0,0,12,33,12,12,0,0,0,0,26,27,26,26,0,0,0,0,0,26,26,26,0,26,0,0,0,0,0,0,0,0,0,0,0,0,0,0,0,0,0,0],"split_type":[0,0,0,0,0,0,0,0,0,0,0,0,0,0,0,0,0,0,0,0,0,0,0,0,0,0,0,0,0,0,0,0,0,0,0,0,0,0,0,0,0,0,0,0,0,0,0,0,0,0,0,0,0,0,0,0,0,0,0],"sum_hessian":[1.00557236E2,6.631136E1,3.424587E1,4.2383717E1,2.3927649E1,2.223696E1,1.2008909E1,3.248005E1,9.9036665E0,1.2067925E1,1.1859724E1,1.5191829E1,7.045131E0,5.7076373E0,6.3012714E0,2.5492489E1,6.9875617E0,8.082749E0,1.8209175E0,3.8985915E0,7.961132E0,1.0387988E1,4.803841E0,5.99523E0,1.0499011E0,1.855632E0,3.8520052E0,2.6116512E0,3.6896205E0,1.7641891E1,7.8505964E0,5.410409E0,1.5771527E0,1.6510272E0,2.2475643E0,1.015002E0,6.9461303E0,2.824624E0,7.563364E0,2.015879E0,2.7879624E0,1.1059337E0,2.7460716E0,1.0311388E0,1.5805124E0,1.2339169E0,2.4557035E0,1.3162352E1,4.4795413E0,4.099134E0,3.7514625E0,1.5448284E0,5.401302E0,1.8129895E0,1.0116346E0,5.887203E0,1.6761608E0,1.5375946E0,1.2503678E0],"tree_param":{"num_deleted":"0","num_feature":"38","num_nodes":"59","size_leaf_vector":"1"}},{"base_weights":[-3.3711786E-3,1.7813511E-1,-1.9106881E-1,-8.826552E-2,5.1225656E-1,-6.1039436E-1,3.7368726E-2,3.2495385E-1,-3.6002958E-1,7.9792625E-1,1.3424091E-1,-1.962464E-1,-2.5444818E-1,5.8200455E-1,-1.5699501E-1,-1.427383E-1,7.0857567E-1,-7.619491E-1,-1.1650053E-1,3.4573656E-1,2.5907576E-1,-5.2085567E-1,4.3608677E-1,-5.6474245E-1,2.8439203E-1,2.300175E-1,2.3707157E-1,-2.2854652E-1,-1.9874042E-2,4.961547E-1,-2.3904288E-1,2.412481E-1,3.678643E-2,-7.2912045E-2,-2.5011107E-1,2.7228457E-1,-6.5243566E-1,1.5735114E-1,-2.8108824E-3,-4.824807E-2,-1.8004541E-1,2.4222339E-2,5.337026E-1,-4.5360643E-2,-1.9518128E-1,-1.0256175E-2,1.3757764E-1,1.6426022E-1,-1.02034755E-1,1.885409E-1,-4.914837E-1,2.1779422E-1,-3.811399E-3,1.9052005E-1,-5.3173495E-3,-5.9046872E-2,-2.1774124E-1,2.0735224E-1,4.7554042E-2,-2.8548429E-2,2.0541616E-1,-2.863476E-1,6.691362E-2],"categories":[],"categories_nodes":[],"categories_segments":[],"categories_sizes":[],"default_left":[0,0,0,0,0,0,0,0,0,0,0,0,0,0,0,0,0,0,0,0,0,0,0,0,0,0,0,0,0,0,0,0,0,0,0,0,0,0,0,0,0,0,0,0,0,0,0,0,0,0,0,0,0,0,0,0,0,0,0,0,0,0,0],"id":19,"left_children":[1,3,5,7,9,11,13,15,17,19,21,23,-1,25,27,29,31,33,35,37,-1,39,41,43,45,47,-1,-1,49,51,-1,-1,-1,-1,-1,53,55,-1,-1,-1,-1,-1,57,-1,-1,-1,-1,-1,-1,59,61,-1,-1,-1,-1,-1,-1,-1,-1,-1,-1,-1,-1],"loss_changes":[3.0767767E0,4.1328154E0,4.2749233E0,3.082092E0,2.1086888E0,1.3807306E0,3.2330062E0,2.0749407E0,1.516705E0,4.2417526E-2,2.211296E0,1.4059911E0,0E0,4.0591812E-1,1.8641491E0,2.8147595E0,2.4928617E-1,2.1087646E-2,2.5518205E0,2.0321923E-1,0E0,6.848514E-3,2.1406221E-1,5.4841876E-2,2.2193325E-1,9.8109204E-1,0E0,0E0,2.0092216E0,4.2382085E-1,0E0,0E0,0E0,0E0,0E0,7.8027123E-1,2.7125835E-2,0E0,0E0,0E0,0E0,0E0,2.2351658E-1,0E0,0E0,0E0,0E0,0E0,0E0,2.0704725E0,2.281695E0,0E0,0E0,0E0,0E0,0E0,0E0,0E0,0E0,0E0,0E0,0E0,0E0],"parents":[2147483647,0,0,1,1,2,2,3,3,4,4,5,5,6,6,7,7,8,8,9,9,10,10,11,11,13,13,14,14,15,15,16,16,17,17,18,18,19,19,21,21,22,22,23,23,24,24,25,25,28,28,29,29,35,35,36,36,42,42,49,49,50,50],"right_children":[2,4,6,8,10,12,14,16,18,20,22,24,-1,26,28,30,32,34,36,38,-1,40,42,44,46,48,-1,-1,50,52,-1,-1,-1,-1,-1,54,56,-1,-1,-1,-1,-1,58,-1,-1,-1,-1,-1,-1,60,62,-1,-1,-1,-1,-1,-1,-1,-1,-1,-1,-1,-1],"split_conditions":[4.68E-1,1.049E2,1.172E2,9.44E1,1.103E2,1.142E2,1.234E2,9.15E1,9.64E1,1.076E2,1.136E2,1.072E2,-2.5444818E-1,1.223E2,1.25E2,8.89E1,9.36E1,9.54E1,1.02E2,1.041E2,2.5907576E-1,1.121E2,1.179E2,1.042E2,1.111E2,1.202E2,2.3707157E-1,-2.2854652E-1,1.375E2,8.59E1,-2.3904288E-1,2.412481E-1,3.678643E-2,-7.2912045E-2,-2.5011107E-1,9.83E1,1.035E2,1.5735114E-1,-2.8108824E-3,-4.824807E-2,-1.8004541E-1,2.4222339E-2,1.212E2,-4.5360643E-2,-1.9518128E-1,-1.0256175E-2,1.3757764E-1,1.6426022E-1,-1.02034755E-1,1.341E2,1.41E2,2.1779422E-1,-3.811399E-3,1.9052005E-1,-5.3173495E-3,-5.9046872E-2,-2.1774124E-1,2.0735224E-1,4.7554042E-2,-2.8548429E-2,2.0541616E-1,-2.863476E-1,6.691362E-2],"split_indices":[16,26,26,12,12,12,12,26,26,26,26,26,0,26,26,12,12,12,12,12,0,12,26,12,26,12,0,0,12,12,0,0,0,0,0,12,12,0,0,0,0,0,12,0,0,0,0,0,0,26,26,0,0,0,0,0,0,0,0,0,0,0,0],"split_type":[0,0,0,0,0,0,0,0,0,0,0,0,0,0,0,0,0,0,0,0,0,0,0,0,0,0,0,0,0,0,0,0,0,0,0,0,0,0,0,0,0,0,0,0,0,0,0,0,0,0,0,0,0,0,0,0,0,0,0,0,0,0,0],"sum_hessian":[8.831295E1,4.4922855E1,4.3390095E1,2.5403807E1,1.951905E1,1.4712122E1,2.8677973E1,1.0001193E1,1.5402614E1,1.0484783E1,9.034267E0,6.0315576E0,8.680564E0,7.018025E0,2.1659948E1,4.789724E0,5.2114687E0,5.0082436E0,1.039437E1,2.1238284E0,8.360954E0,2.6207914E0,6.413476E0,3.315016E0,2.7165415E0,3.3908815E0,3.6271436E0,3.1610482E0,1.84989E1,2.545111E0,2.2446132E0,4.1604023E0,1.0510662E0,1.1413581E0,3.8668854E0,6.3093233E0,4.085047E0,1.0953665E0,1.028462E0,1.0196109E0,1.6011804E0,1.7758988E0,4.637577E0,1.0446435E0,2.2703724E0,1.2444403E0,1.4721012E0,2.203407E0,1.1874745E0,1.3245592E1,5.253308E0,1.4593252E0,1.0857857E0,2.2743917E0,4.034931E0,1.077363E0,3.007684E0,2.6733413E0,1.9642358E0,8.941367E0,4.304225E0,2.9839208E0,2.269387E0],"tree_param":{"num_deleted":"0","num_feature":"38","num_nodes":"63","size_leaf_vector":"1"}},{"base_weights":[-3.6018696E-3,-1.5354593E-1,1.8882157E-1,7.8685254E-2,-5.6119436E-1,6.9168866E-1,-9.541161E-3,-8.761187E-2,6.1843795E-1,-2.5553605E-1,-2.0719852E-1,1.7323077E-1,2.4595617E-1,-1.8454501E-1,8.898655E-2,2.67254E-1,-3.2296556E-1,2.3555328E-1,2.1795145E-1,2.5272593E-1,-1.7491037E-1,1.3104238E-1,-6.019212E-2,3.8653886E-1,-2.401812E-1,-5.9355583E-2,2.4257801E-1,-2.405992E-1,-1.2178115E-1,-8.163229E-2,1.6682258E-1,-1.7795058E-2,1.4606886E-1,2.6631644E-2,7.4254966E-1,1.7032783E-1,-6.0187614E-1,1.5058306E-1,-1.5972856E-1,3.4991957E-2,-1.9173604E-1,1.205223E-1,-1.5280402E-1,2.5149497E-1,6.964376E-2,-1.548931E-1,1.5227637E-1,1.1021278E-1,-2.5758684E-1],"categories":[],"categories_nodes":[],"categories_segments":[],"categories_sizes":[],"default_left":[0,0,0,0,0,0,0,0,0,0,0,0,0,0,0,0,0,0,0,0,0,0,0,0,0,0,0,0,0,0,0,0,0,0,0,0,0,0,0,0,0,0,0,0,0,0,0,0,0],"id":20,"left_children":[1,3,5,7,9,11,13,15,17,-1,19,21,-1,-1,23,25,27,-1,29,31,-1,-1,-1,33,35,37,-1,-1,39,-1,-1,-1,-1,41,43,45,47,-1,-1,-1,-1,-1,-1,-1,-1,-1,-1,-1,-1],"loss_changes":[2.2930112E0,4.271446E0,3.4793515E0,2.6863267E0,1.5032558E0,5.132804E-1,1.6033149E0,2.0317662E0,2.9837322E-1,0E0,1.6482375E0,4.0520814E-1,0E0,0E0,2.3646445E0,1.7870001E0,1.2956936E0,0E0,7.2314954E-1,3.651724E-1,0E0,0E0,0E0,1.5902747E0,1.8291967E0,2.143548E0,0E0,0E0,1.4758369E0,0E0,0E0,0E0,0E0,1.669447E0,1.1234474E-1,1.7039611E0,1.9087615E0,0E0,0E0,0E0,0E0,0E0,0E0,0E0,0E0,0E0,0E0,0E0,0E0],"parents":[2147483647,0,0,1,1,2,2,3,3,4,4,5,5,6,6,7,7,8,8,10,10,11,11,14,14,15,15,16,16,18,18,19,19,23,23,24,24,25,25,28,28,33,33,34,34,35,35,36,36],"right_children":[2,4,6,8,10,12,14,16,18,-1,20,22,-1,-1,24,26,28,-1,30,32,-1,-1,-1,34,36,38,-1,-1,40,-1,-1,-1,-1,42,44,46,48,-1,-1,-1,-1,-1,-1,-1,-1,-1,-1,-1,-1],"split_conditions":[5.85E-1,1.093E2,1.172E2,1.044E2,1.117E2,1.134E2,1.207E2,9.44E1,1.054E2,-2.5553605E-1,1.187E2,1.082E2,2.4595617E-1,-1.8454501E-1,1.315E2,9.29E1,9.54E1,2.3555328E-1,1.081E2,1.153E2,-1.7491037E-1,1.3104238E-1,-6.019212E-2,1.28E2,1E0,8.89E1,2.4257801E-1,-2.405992E-1,1.026E2,-8.163229E-2,1.6682258E-1,-1.7795058E-2,1.4606886E-1,1.26E2,1.299E2,1.341E2,8.3E1,1.5058306E-1,-1.5972856E-1,3.4991957E-2,-1.9173604E-1,1.205223E-1,-1.5280402E-1,2.5149497E-1,6.964376E-2,-1.548931E-1,1.5227637E-1,1.1021278E-1,-2.5758684E-1],"split_indices":[33,12,12,26,26,26,26,12,12,0,12,12,0,0,12,26,26,0,26,26,0,0,0,26,37,12,0,0,12,0,0,0,0,12,12,26,17,0,0,0,0,0,0,0,0,0,0,0,0],"split_type":[0,0,0,0,0,0,0,0,0,0,0,0,0,0,0,0,0,0,0,0,0,0,0,0,0,0,0,0,0,0,0,0,0,0,0,0,0,0,0,0,0,0,0,0,0,0,0,0,0],"sum_hessian":[7.7468025E1,4.3653507E1,3.381452E1,2.8324465E1,1.5329043E1,8.86188E0,2.495264E1,2.2293535E1,6.0309286E0,7.6461625E0,7.6828804E0,2.2225933E0,6.639287E0,2.7578518E0,2.219479E1,8.835637E0,1.3457899E1,3.5799031E0,2.4510257E0,3.6022441E0,4.0806365E0,1.2048457E0,1.0177476E0,1.156567E1,1.0629119E1,6.0660963E0,2.7695405E0,3.0971134E0,1.03607855E1,1.0803972E0,1.3706285E0,1.8644592E0,1.737785E0,6.2858396E0,5.2798305E0,5.2264247E0,5.402694E0,2.7464347E0,3.3196616E0,7.6224427E0,2.7383428E0,3.8451967E0,2.4406428E0,3.9047298E0,1.375101E0,1.5466516E0,3.6797729E0,1.0411873E0,4.3615074E0],"tree_param":{"num_deleted":"0","num_feature":"38","num_nodes":"49","size_leaf_vector":"1"}},{"base_weights":[-9.5464016E-4,1.11906014E-1,-2.100785E-1,-4.7795977E-2,5.233633E-1,-4.0825793E-1,1.1125349E-1,7.662594E-2,-4.9721408E-1,1.6229808E-1,6.073313E-1,-1.858267E-1,-6.5431637E-1,4.131792E-1,-1.9497257E-1,-7.460513E-2,6.25838E-1,-2.1019769E-1,-1.2148494E-1,1.225405E-1,-6.8326384E-2,2.253747E-1,3.0578634E-1,-3.908649E-1,1.4236207E-1,-7.237101E-1,-3.8316872E-2,3.984305E-2,1.886026E-1,1.7271629E-1,-5.463206E-1,6.741253E-2,-5.742597E-1,2.2947921E-1,5.8527213E-2,1.0496368E-1,-1.2479852E-1,-6.130974E-2,1.9555384E-1,-5.7529825E-1,-8.7741815E-2,-6.6492766E-2,-2.4565579E-1,1.09555885E-1,-8.993333E-2,1.373129E-1,-4.0696114E-2,-3.0050954E-2,-2.1465641E-1,-2.077403E-2,1.8695484E-1,-2.1680419E-1,-4.0804125E-2,-3.614282E-2,-2.1009578E-1,8.815289E-2,-1.5484558E-1],"categories":[],"categories_nodes":[],"categories_segments":[],"categories_sizes":[],"default_left":[0,0,0,0,0,0,0,0,0,0,0,0,0,0,0,0,0,0,0,0,0,0,0,0,0,0,0,0,0,0,0,0,0,0,0,0,0,0,0,0,0,0,0,0,0,0,0,0,0,0,0,0,0,0,0,0,0],"id":21,"left_children":[1,3,5,7,9,11,13,15,17,19,21,23,25,27,29,31,33,-1,35,-1,-1,-1,37,39,-1,41,-1,43,-1,45,47,49,51,-1,-1,-1,-1,-1,-1,53,55,-1,-1,-1,-1,-1,-1,-1,-1,-1,-1,-1,-1,-1,-1,-1,-1],"loss_changes":[1.6619842E0,3.0306535E0,1.6171322E0,1.9318769E0,2.9172063E-1,7.2564435E-1,1.0237111E0,2.3216972E0,4.8640573E-1,4.572879E-1,2.0771074E-1,1.4754369E0,1.6164327E-1,4.139911E-1,8.3638126E-1,1.6261E0,2.1147156E-1,0E0,6.7808074E-1,0E0,0E0,0E0,1.0058539E0,3.866018E-1,0E0,1.0172844E-1,0E0,4.48117E-1,0E0,3.7551975E-1,1.6818309E-1,1.4341314E0,2.305814E-1,0E0,0E0,0E0,0E0,0E0,0E0,1.8178415E-1,8.2802916E-1,0E0,0E0,0E0,0E0,0E0,0E0,0E0,0E0,0E0,0E0,0E0,0E0,0E0,0E0,0E0,0E0],"parents":[2147483647,0,0,1,1,2,2,3,3,4,4,5,5,6,6,7,7,8,8,9,9,10,10,11,11,12,12,13,13,14,14,15,15,16,16,18,18,22,22,23,23,25,25,27,27,29,29,30,30,31,31,32,32,39,39,40,40],"right_children":[2,4,6,8,10,12,14,16,18,20,22,24,26,28,30,32,34,-1,36,-1,-1,-1,38,40,-1,42,-1,44,-1,46,48,50,52,-1,-1,-1,-1,-1,-1,54,56,-1,-1,-1,-1,-1,-1,-1,-1,-1,-1,-1,-1,-1,-1,-1,-1],"split_conditions":[5E-1,1.16E2,1.3E2,1.109E2,1.162E2,1.28E2,2.2E1,1.057E2,1.137E2,1.118E2,1.215E2,1.25E2,9E0,1.349E2,1.365E2,1.02E2,1.072E2,-2.1019769E-1,1.161E2,1.225405E-1,-6.8326384E-2,2.253747E-1,1.272E2,1.156E2,1.4236207E-1,1.303E2,-3.8316872E-2,1.303E2,1.886026E-1,4E0,5E-1,1.002E2,1.03E2,2.2947921E-1,5.8527213E-2,1.0496368E-1,-1.2479852E-1,-6.130974E-2,1.9555384E-1,1.134E2,1.223E2,-6.6492766E-2,-2.4565579E-1,1.09555885E-1,-8.993333E-2,1.373129E-1,-4.0696114E-2,-3.0050954E-2,-2.1465641E-1,-2.077403E-2,1.8695484E-1,-2.1680419E-1,-4.0804125E-2,-3.614282E-2,-2.1009578E-1,8.815289E-2,-1.5484558E-1],"split_indices":[16,28,28,12,26,12,27,26,26,12,12,26,30,26,12,12,12,0,12,0,0,0,26,26,0,12,0,12,0,6,1,26,26,0,0,0,0,0,0,12,12,0,0,0,0,0,0,0,0,0,0,0,0,0,0,0,0],"split_type":[0,0,0,0,0,0,0,0,0,0,0,0,0,0,0,0,0,0,0,0,0,0,0,0,0,0,0,0,0,0,0,0,0,0,0,0,0,0,0,0,0,0,0,0,0,0,0,0,0,0,0,0,0,0,0,0,0],"sum_hessian":[6.8421455E1,4.474059E1,2.3680868E1,3.286737E1,1.1873221E1,1.447994E1,9.200928E0,2.63906E1,6.4767685E0,2.793583E0,9.0796385E0,8.526969E0,5.9529715E0,4.457129E0,4.7437987E0,2.1370247E1,5.020354E0,3.6406693E0,2.8360991E0,1.6837322E0,1.1098509E0,5.136717E0,3.9429216E0,6.8181133E0,1.7088556E0,4.9290977E0,1.0238738E0,2.064821E0,2.3923082E0,2.5664277E0,2.1773713E0,1.731411E1,4.056137E0,3.2084801E0,1.8118736E0,1.0183021E0,1.8177971E0,1.7591214E0,2.1838002E0,3.6807072E0,3.1374063E0,1.3157039E0,3.6133938E0,1.0161313E0,1.0486897E0,1.082085E0,1.4843426E0,1.0364537E0,1.1409175E0,1.4599594E1,2.7145152E0,2.545143E0,1.5109943E0,1.2169888E0,2.4637184E0,1.8255222E0,1.311884E0],"tree_param":{"num_deleted":"0","num_feature":"38","num_nodes":"57","size_leaf_vector":"1"}},{"base_weights":[-1.479525E-3,2.5760025E-1,-8.0488645E-2,-1.3144435E-1,3.9013547E-1,-4.0791368E-1,8.171048E-2,5.256425E-1,3.297545E-2,-1.5279524E-1,-2.421055E-1,6.8340766E-1,-7.5911924E-2,6.4529246E-1,1.2612736E-1,-1.1251727E-1,1.20999776E-1,-3.413762E-1,2.878617E-1,7.969158E-2,2.357644E-1,-5.8675915E-1,5.981713E-2,2.3122111E-1,2.4523729E-1,-4.9816612E-2,9.698786E-2,3.6328666E-2,-4.8356712E-1,1.5698938E-1,-5.3318907E-3,-1.593297E-2,-2.0550224E-1,3.969995E-1,-1.4427613E-1,-1.7691234E-2,1.2560426E-1,-1.9615681E-1,-3.8186714E-2,3.0984124E-2,2.2609246E-1,-1.9958036E-1,1.4469259E-2],"categories":[],"categories_nodes":[],"categories_segments":[],"categories_sizes":[],"default_left":[0,0,0,0,0,0,0,0,0,0,0,0,0,0,0,0,0,0,0,0,0,0,0,0,0,0,0,0,0,0,0,0,0,0,0,0,0,0,0,0,0,0,0],"id":22,"left_children":[1,3,5,-1,7,9,11,13,15,17,-1,19,21,23,25,-1,-1,27,29,-1,-1,31,33,-1,35,-1,-1,-1,37,-1,-1,-1,-1,39,41,-1,-1,-1,-1,-1,-1,-1,-1],"loss_changes":[1.3247181E0,1.5656389E0,2.6663306E0,0E0,6.231563E-1,1.5659463E0,3.2752743E0,3.7401986E-1,8.6256737E-1,1.0418348E0,0E0,9.755635E-2,1.9648931E0,1.6671658E-1,2.5177616E-1,0E0,0E0,6.115386E-1,2.9320747E-1,0E0,0E0,2.7479362E-1,1.6329825E0,0E0,1.9135652E-1,0E0,0E0,0E0,3.1913352E-1,0E0,0E0,0E0,0E0,8.544762E-1,1.5362041E0,0E0,0E0,0E0,0E0,0E0,0E0,0E0,0E0],"parents":[2147483647,0,0,1,1,2,2,4,4,5,5,6,6,7,7,8,8,9,9,11,11,12,12,13,13,14,14,17,17,18,18,21,21,22,22,24,24,28,28,33,33,34,34],"right_children":[2,4,6,-1,8,10,12,14,16,18,-1,20,22,24,26,-1,-1,28,30,-1,-1,32,34,-1,36,-1,-1,-1,38,-1,-1,-1,-1,40,42,-1,-1,-1,-1,-1,-1,-1,-1],"split_conditions":[4.15E-1,3.64E-1,1.101E2,-1.3144435E-1,4.12E-1,1.081E2,1.146E2,4.02E-1,9.75E1,1.026E2,-2.421055E-1,1.129E2,1.193E2,2.1E1,2.2E1,-1.1251727E-1,1.20999776E-1,9.51E1,1.041E2,7.969158E-2,2.357644E-1,1.161E2,1.272E2,2.3122111E-1,3.8E1,-4.9816612E-2,9.698786E-2,3.6328666E-2,9.89E1,1.5698938E-1,-5.3318907E-3,-1.593297E-2,-2.0550224E-1,1.26E2,1.295E2,-1.7691234E-2,1.2560426E-1,-1.9615681E-1,-3.8186714E-2,3.0984124E-2,2.2609246E-1,-1.9958036E-1,1.4469259E-2],"split_indices":[16,15,26,0,4,12,12,16,26,26,0,26,26,27,5,0,0,12,12,0,0,12,12,0,14,0,0,0,26,0,0,0,0,26,26,0,0,0,0,0,0,0,0],"split_type":[0,0,0,0,0,0,0,0,0,0,0,0,0,0,0,0,0,0,0,0,0,0,0,0,0,0,0,0,0,0,0,0,0,0,0,0,0,0,0,0,0,0,0],"sum_hessian":[6.270325E1,1.4125094E1,4.8578156E1,1.8912129E0,1.2233882E1,1.5590775E1,3.298738E1,8.526998E0,3.706884E0,1.0354649E1,5.236126E0,6.155202E0,2.683218E1,6.0884056E0,2.438592E0,1.7576925E0,1.9491915E0,7.409168E0,2.9454815E0,1.9199849E0,4.235217E0,4.9350343E0,2.1897144E1,3.9296238E0,2.1587818E0,1.0461187E0,1.3924733E0,1.7772092E0,5.6319585E0,1.2615317E0,1.6839498E0,1.0068351E0,3.9281993E0,7.9001403E0,1.39970045E1,1.0235485E0,1.1352333E0,3.245485E0,2.3864732E0,5.0394225E0,2.8607178E0,3.1138957E0,1.0883109E1],"tree_param":{"num_deleted":"0","num_feature":"38","num_nodes":"43","size_leaf_vector":"1"}},{"base_weights":[7.0506457E-4,3.958961E-2,-4.658448E-1,-4.506088E-2,4.4274315E-1,-2.3623271E-1,2.2643235E-2,6.0108E-2,-3.882214E-1,-2.6405582E-2,5.3650093E-1,-5.96304E-2,5.8406925E-1,-2.3476572E-1,-8.333414E-2,2.0993705E-1,1.3740867E-1,6.3237E-2,-5.9411174E-1,2.2214992E-1,1.9203903E-1,2.5014782E-1,-4.0577212E-1,1.3441332E-1,-5.8998995E-2,-1.8990736E-2,1.6802068E-1,-2.2107284E-1,-5.197062E-2,-7.5708345E-2,1.6295113E-1,-2.1361267E-2,1.7337708E-1,-1.9094802E-1,-1.1246731E-2],"categories":[],"categories_nodes":[],"categories_segments":[],"categories_sizes":[],"default_left":[0,0,0,0,0,0,0,0,0,0,0,0,0,0,0,0,0,0,0,0,0,0,0,0,0,0,0,0,0,0,0,0,0,0,0],"id":23,"left_children":[1,3,5,7,9,-1,-1,11,13,-1,15,17,19,-1,21,-1,23,25,27,-1,29,31,33,-1,-1,-1,-1,-1,-1,-1,-1,-1,-1,-1,-1],"loss_changes":[1.0780243E0,1.8912973E0,8.553104E-1,1.6916422E0,5.25347E-1,0E0,0E0,2.3090074E0,1.2546173E0,0E0,4.4515824E-1,2.0348148E0,2.769835E-1,0E0,8.8755494E-1,0E0,4.6753085E-1,1.6469302E0,2.1977043E-1,0E0,6.519752E-1,4.8482934E-1,3.243521E-1,0E0,0E0,0E0,0E0,0E0,0E0,0E0,0E0,0E0,0E0,0E0,0E0],"parents":[2147483647,0,0,1,1,2,2,3,3,4,4,7,7,8,8,10,10,11,11,12,12,14,14,16,16,17,17,18,18,20,20,21,21,22,22],"right_children":[2,4,6,8,10,-1,-1,12,14,-1,16,18,20,-1,22,-1,24,26,28,-1,30,32,34,-1,-1,-1,-1,-1,-1,-1,-1,-1,-1,-1,-1],"split_conditions":[1.389E2,6.47E-1,1.41E2,1.215E2,1.7E1,-2.3623271E-1,2.2643235E-2,1.155E2,1.234E2,-2.6405582E-2,1.6E1,1.113E2,1.175E2,-2.3476572E-1,1.292E2,2.0993705E-1,7.66E1,1.066E2,1.125E2,2.2214992E-1,1.204E2,1.272E2,1.315E2,1.3441332E-1,-5.8998995E-2,-1.8990736E-2,1.6802068E-1,-2.2107284E-1,-5.197062E-2,-7.5708345E-2,1.6295113E-1,-2.1361267E-2,1.7337708E-1,-1.9094802E-1,-1.1246731E-2],"split_indices":[12,33,26,12,21,0,0,26,26,0,31,12,12,0,12,0,10,26,26,0,26,26,26,0,0,0,0,0,0,0,0,0,0,0,0],"split_type":[0,0,0,0,0,0,0,0,0,0,0,0,0,0,0,0,0,0,0,0,0,0,0,0,0,0,0,0,0,0,0,0,0,0,0],"sum_hessian":[5.7406258E1,5.3834564E1,3.571692E0,4.522654E1,8.6080265E0,1.9553571E0,1.6163349E0,3.524867E1,9.977868E0,1.3014944E0,7.306532E0,2.9413202E1,5.835468E0,3.6676102E0,6.310258E0,4.650371E0,2.6561608E0,2.4632362E1,4.78084E0,3.535732E0,2.2997358E0,3.2122166E0,3.0980413E0,1.199577E0,1.4565839E0,2.0327648E1,4.304715E0,3.0090253E0,1.7718146E0,1.1392126E0,1.160523E0,2.017258E0,1.1949587E0,1.4569942E0,1.6410472E0],"tree_param":{"num_deleted":"0","num_feature":"38","num_nodes":"35","size_leaf_vector":"1"}},{"base_weights":[-5.418354E-4,1.9520466E-1,-3.0624157E-2,-2.2034469E-1,1.2002052E-2,6.2218326E-1,-4.327791E-2,4.0571753E-2,2.2124965E-1,-2.2381914E-1,8.777644E-3,1.9081779E-1,-4.41542E-2,-2.0198561E-1,3.725297E-3],"categories":[],"categories_nodes":[],"categories_segments":[],"categories_sizes":[],"default_left":[0,0,0,0,0,0,0,0,0,0,0,0,0,0,0],"id":24,"left_children":[1,-1,3,-1,5,7,9,-1,-1,-1,11,-1,13,-1,-1],"loss_changes":[1.0839354E0,0E0,1.5950602E0,0E0,1.7416251E0,1.410358E-1,1.7460005E0,0E0,0E0,0E0,1.5307387E0,0E0,1.527024E0,0E0,0E0],"parents":[2147483647,0,0,2,2,4,4,5,5,6,6,10,10,12,12],"right_children":[2,-1,4,-1,6,8,10,-1,-1,-1,12,-1,14,-1,-1],"split_conditions":[8.59E1,1.9520466E-1,8.89E1,-2.2034469E-1,9.29E1,9.2E1,9.44E1,4.0571753E-2,2.2124965E-1,-2.2381914E-1,9.64E1,1.9081779E-1,9.83E1,